{"learner":{"attributes":{"scikit_learn":"{\"_estimator_type\": \"regressor\"}"},"feature_names":[],"feature_types":[],"gradient_booster":{"model":{"cats":{"enc":[],"feature_segments":[],"sorted_idx":[]},"gbtree_model_param":{"num_parallel_tree":"1","num_trees":"100"},"iteration_indptr":[0,1,2,3,4,5,6,7,8,9,10,11,12,13,14,15,16,17,18,19,20,21,22,23,24,25,26,27,28,29,30,31,32,33,34,35,36,37,38,39,40,41,42,43,44,45,46,47,48,49,50,51,52,53,54,55,56,57,58,59,60,61,62,63,64,65,66,67,68,69,70,71,72,73,74,75,76,77,78,79,80,81,82,83,84,85,86,87,88,89,90,91,92,93,94,95,96,97,98,99,100],"tree_info":[0,0,0,0,0,0,0,0,0,0,0,0,0,0,0,0,0,0,0,0,0,0,0,0,0,0,0,0,0,0,0,0,0,0,0,0,0,0,0,0,0,0,0,0,0,0,0,0,0,0,0,0,0,0,0,0,0,0,0,0,0,0,0,0,0,0,0,0,0,0,0,0,0,0,0,0,0,0,0,0,0,0,0,0,0,0,0,0,0,0,0,0,0,0,0,0,0,0,0,0],"trees":[{"base_weights":[-0E0,-2.4115458E1,2.5502922E1,-3.6124546E1,-1.0866123E1,1.2458052E1,3.652496E1,-4.1915123E1,-2.9391197E1,-1.7196499E1,-5.333108E0,6.964751E0,1.8306995E1,2.9182022E1,4.2408867E1,1.12425E1,-4.277383E1,-9.600737E0,-7.698443E0,-6.009286E0,-1.4360606E1,-2.8928971E0,-2.8778949E0,3.2632654E0,9.134147E0,4.5334377E0,6.0768247E0,7.8087807E0,9.496552E0,1.1732802E1,1.3869452E1,-1.3761477E1,-1.1623973E1,-4.7869816E0,-3.937125E0,-4.5548673E0,-4.1153848E-1,1.332258E0,4.095588E0,2.255E0,3.0360608E0,-1.4809756E0,-1.0303125E0,-2.5604653E-1,3.8333323E-2,-4.0500012E-1,5.0035715E-1,1.3531579E0,1.0364516E0],"categories":[],"categories_nodes":[],"categories_segments":[],"categories_sizes":[],"default_left":[0,0,0,0,0,0,0,0,0,0,0,0,0,0,0,0,0,0,0,0,0,0,0,0,0,0,0,0,0,0,0,0,0,0,0,0,0,0,0,0,0,0,0,0,0,0,0,0,0],"id":0,"left_children":[1,3,5,7,9,11,13,15,17,19,21,23,25,27,29,-1,31,-1,-1,-1,33,-1,35,37,39,-1,-1,-1,-1,-1,-1,-1,-1,-1,-1,41,43,45,47,-1,-1,-1,-1,-1,-1,-1,-1,-1,-1],"loss_changes":[1.385628E6,1.8385969E5,1.5698512E5,2.2435E4,1.9242672E4,1.6033891E4,2.4383125E4,2.3690938E4,1.9447031E3,1.7781562E3,3.1044258E3,2.0660186E3,1.2073984E3,1.2578906E3,2.316375E3,0E0,2.2273125E3,0E0,0E0,0E0,5.1160156E1,0E0,7.8396765E2,1.5205127E2,1.8549805E2,0E0,0E0,0E0,0E0,0E0,0E0,0E0,0E0,0E0,0E0,3.1377441E1,1.8700415E1,3.0156677E1,2.4960938E0,0E0,0E0,0E0,0E0,0E0,0E0,0E0,0E0,0E0,0E0],"parents":[2147483647,0,0,1,1,2,2,3,3,4,4,5,5,6,6,7,7,8,8,9,9,10,10,11,11,12,12,13,13,14,14,16,16,20,20,22,22,23,23,24,24,35,35,36,36,37,37,38,38],"right_children":[2,4,6,8,10,12,14,16,18,20,22,24,26,28,30,-1,32,-1,-1,-1,34,-1,36,38,40,-1,-1,-1,-1,-1,-1,-1,-1,-1,-1,42,44,46,48,-1,-1,-1,-1,-1,-1,-1,-1,-1,-1],"split_conditions":[1.092E1,1.075E1,1.107E1,1.045E1,1.085E1,1.099E1,1.114E1,8.9E0,1.066E1,1.081E1,1.088E1,1.095E1,1.103E1,1.11E1,1.119E1,1.12425E1,1.015E1,-9.600737E0,-7.698443E0,-6.009286E0,1.083E1,-2.8928971E0,1.09E1,1.093E1,1.097E1,4.5334377E0,6.0768247E0,7.8087807E0,9.496552E0,1.1732802E1,1.3869452E1,-1.3761477E1,-1.1623973E1,-4.7869816E0,-3.937125E0,1.089E1,1.091E1,7.3E-1,7.4E-1,2.255E0,3.0360608E0,-1.4809756E0,-1.0303125E0,-2.5604653E-1,3.8333323E-2,-4.0500012E-1,5.0035715E-1,1.3531579E0,1.0364516E0],"split_indices":[0,0,0,0,0,0,0,0,0,0,0,0,0,0,0,0,0,0,0,0,0,0,0,0,0,0,0,0,0,0,0,0,0,0,0,0,0,1,1,0,0,0,0,0,0,0,0,0,0],"split_type":[0,0,0,0,0,0,0,0,0,0,0,0,0,0,0,0,0,0,0,0,0,0,0,0,0,0,0,0,0,0,0,0,0,0,0,0,0,0,0,0,0,0,0,0,0,0,0,0,0],"sum_hessian":[2.251E3,1.157E3,1.094E3,6.06E2,5.51E2,5.02E2,5.92E2,3.23E2,2.83E2,2.56E2,2.95E2,2.6E2,2.42E2,2.66E2,3.26E2,3E0,3.2E2,1.62E2,1.21E2,1.25E2,1.31E2,1.06E2,1.89E2,9.7E1,1.63E2,9.5E1,1.47E2,1.22E2,1.44E2,1.81E2,1.45E2,1.75E2,1.45E2,5.2E1,7.9E1,1.12E2,7.7E1,3E1,6.7E1,6.5E1,9.8E1,8.1E1,3.1E1,4.2E1,3.5E1,3E0,2.7E1,3.7E1,3E1],"tree_param":{"num_deleted":"0","num_feature":"3","num_nodes":"49","size_leaf_vector":"1"}},{"base_weights":[4.2170463E-3,-1.692555E1,1.7908022E1,-2.5983742E1,-8.251246E0,9.816888E0,2.670615E1,8.712938E0,-2.6328543E1,-1.3251552E1,-4.2259984E0,5.4256973E0,1.4506623E1,2.2382298E1,3.0847645E1,-3.081103E1,-2.194141E1,-4.6619797E0,-3.3528125E0,-7.15667E0,-2.0288897E0,2.3096418E0,6.925436E0,3.6152518E0,4.8635254E0,6.0461535E0,7.2531548E0,8.618361E0,9.867608E0,-1.0018638E1,-8.618579E0,-7.2729683E0,-5.8894114E0,-2.270786E0,-5.221133E0,-3.210631E0,-2.9086852E-1,9.356553E-1,2.9020529E0,1.6771376E0,8.230913E0,-5.715978E-1,-1.6628453E0,-1.042101E0,-7.308782E-1,-2.7924645E-1,-1.1629848E-2,-3.138754E-1,3.5561058E-1,8.7840027E-1,1.7453213E-1,6.6959095E-1,2.4808056E0],"categories":[],"categories_nodes":[],"categories_segments":[],"categories_sizes":[],"default_left":[0,0,0,0,0,0,0,0,0,0,0,0,0,0,0,0,0,0,0,0,0,0,0,0,0,0,0,0,0,0,0,0,0,0,0,0,0,0,0,0,0,0,0,0,0,0,0,0,0,0,0,0,0],"id":1,"left_children":[1,3,5,7,9,11,13,-1,15,17,19,21,23,25,27,29,31,-1,-1,33,35,37,39,-1,-1,-1,-1,-1,-1,-1,-1,-1,-1,-1,41,43,45,47,49,-1,51,-1,-1,-1,-1,-1,-1,-1,-1,-1,-1,-1,-1],"loss_changes":[6.8290056E5,9.077372E4,7.768741E4,1.15035625E4,1.1879586E4,1.1700781E4,8.6929375E3,0E0,1.03955E4,1.0802109E3,2.1103516E3,1.3719639E3,9.603672E2,5.526797E2,2.035E2,5.260156E2,1.0554531E3,0E0,0E0,7.3086914E1,3.8930542E2,7.705322E1,3.0254297E2,0E0,0E0,0E0,0E0,0E0,0E0,0E0,0E0,0E0,0E0,0E0,1.9305054E1,1.4554199E1,1.254794E1,1.6582354E1,2.390564E0,0E0,4.3720703E0,0E0,0E0,0E0,0E0,0E0,0E0,0E0,0E0,0E0,0E0,0E0,0E0],"parents":[2147483647,0,0,1,1,2,2,3,3,4,4,5,5,6,6,8,8,9,9,10,10,11,11,12,12,13,13,14,14,15,15,16,16,19,19,20,20,21,21,22,22,34,34,35,35,36,36,37,37,38,38,40,40],"right_children":[2,4,6,8,10,12,14,-1,16,18,20,22,24,26,28,30,32,-1,-1,34,36,38,40,-1,-1,-1,-1,-1,-1,-1,-1,-1,-1,-1,42,44,46,48,50,-1,52,-1,-1,-1,-1,-1,-1,-1,-1,-1,-1,-1,-1],"split_conditions":[1.092E1,1.073E1,1.108E1,8.9E0,1.084E1,1.101E1,1.116E1,8.712938E0,1.038E1,1.079E1,1.088E1,1.095E1,1.104E1,1.112E1,1.12E1,9.91E0,1.058E1,-4.6619797E0,-3.3528125E0,1.087E1,1.09E1,1.093E1,1.098E1,3.6152518E0,4.8635254E0,6.0461535E0,7.2531548E0,8.618361E0,9.867608E0,-1.0018638E1,-8.618579E0,-7.2729683E0,-5.8894114E0,-2.270786E0,7.2E-1,1.089E1,7.3E-1,7.3E-1,7.8E-1,1.6771376E0,7.1E-1,-5.715978E-1,-1.6628453E0,-1.042101E0,-7.308782E-1,-2.7924645E-1,-1.1629848E-2,-3.138754E-1,3.5561058E-1,8.7840027E-1,1.7453213E-1,6.6959095E-1,2.4808056E0],"split_indices":[0,0,0,0,0,0,0,0,0,0,0,0,0,0,0,0,0,0,0,0,0,0,0,0,0,0,0,0,0,0,0,0,0,0,1,0,1,1,1,0,1,0,0,0,0,0,0,0,0,0,0,0,0],"split_type":[0,0,0,0,0,0,0,0,0,0,0,0,0,0,0,0,0,0,0,0,0,0,0,0,0,0,0,0,0,0,0,0,0,0,0,0,0,0,0,0,0,0,0,0,0,0,0,0,0,0,0,0,0],"sum_hessian":[2.251E3,1.157E3,1.094E3,5.65E2,5.92E2,5.71E2,5.23E2,3E0,5.62E2,2.63E2,3.29E2,2.96E2,2.75E2,2.59E2,2.64E2,2.75E2,2.87E2,1.22E2,1.41E2,1.4E2,1.89E2,9.7E1,1.99E2,1.16E2,1.59E2,1.21E2,1.38E2,1.37E2,1.27E2,1.16E2,1.59E2,1.39E2,1.48E2,1.13E2,2.7E1,1.12E2,7.7E1,3E1,6.7E1,1.01E2,9.8E1,3E0,2.4E1,8.1E1,3.1E1,2.1E1,5.6E1,3E0,2.7E1,6.6E1,1E0,1E0,9.7E1],"tree_param":{"num_deleted":"0","num_feature":"3","num_nodes":"53","size_leaf_vector":"1"}},{"base_weights":[6.7334436E-3,-1.22558565E1,1.2193355E1,-1.8506924E1,-6.413357E0,5.7176175E0,1.8047913E1,6.752527E0,-1.877697E1,-9.527753E0,-3.3511214E0,3.033256E0,8.963927E0,1.5319401E1,6.616016E0,-2.210505E1,-1.6031672E1,-3.4670465E0,-8.208908E0,-5.0416207E0,-1.7916924E0,1.2431769E0,4.466471E0,2.0967052E0,9.645839E0,3.9676557E0,5.0941114E0,-7.226719E0,-6.2670326E0,-5.3357544E0,-4.331524E0,-2.610074E0,-1.9829525E0,-1.7151515E0,-1.2944438E0,-2.2631307E0,-5.111289E-1,3.962395E-1,2.0469224E0,1.0932313E0,4.9696E0,2.6290596E0,3.1179183E0,-7.610426E-1,-4.9686575E-1,-3.8016823E-1,-4.2373583E-2,4.838607E-2,1.9689173E-1,5.360612E-1,7.7451104E-1,1.9139949E0,1.3862556E0],"categories":[],"categories_nodes":[],"categories_segments":[],"categories_sizes":[],"default_left":[0,0,0,0,0,0,0,0,0,0,0,0,0,0,0,0,0,0,0,0,0,0,0,0,0,0,0,0,0,0,0,0,0,0,0,0,0,0,0,0,0,0,0,0,0,0,0,0,0,0,0,0,0],"id":2,"left_children":[1,3,5,7,9,11,13,-1,15,17,19,21,23,25,-1,27,29,-1,31,33,35,37,39,-1,41,-1,-1,-1,-1,-1,-1,-1,-1,-1,-1,43,45,47,49,-1,51,-1,-1,-1,-1,-1,-1,-1,-1,-1,-1,-1,-1],"loss_changes":[3.3668725E5,4.089536E4,4.2738047E4,6.4258438E3,5.5186133E3,4.66109E3,6.1430156E3,0E0,4.5702344E3,6.758262E2,7.6864966E2,7.538557E2,2.5983398E2,1.0135547E3,0E0,7.76875E1,5.788672E2,0E0,8.234473E1,4.456201E1,9.241785E1,8.9724976E1,4.9746582E1,0E0,2.6273438E1,0E0,0E0,0E0,0E0,0E0,0E0,0E0,0E0,0E0,0E0,1.4567505E1,1.1846753E1,3.92696E0,4.8436584E0,0E0,1.9214111E1,0E0,0E0,0E0,0E0,0E0,0E0,0E0,0E0,0E0,0E0,0E0,0E0],"parents":[2147483647,0,0,1,1,2,2,3,3,4,4,5,5,6,6,8,8,9,9,10,10,11,11,12,12,13,13,15,15,16,16,18,18,19,19,20,20,21,21,22,22,24,24,35,35,36,36,37,37,38,38,40,40],"right_children":[2,4,6,8,10,12,14,-1,16,18,20,22,24,26,-1,28,30,-1,32,34,36,38,40,-1,42,-1,-1,-1,-1,-1,-1,-1,-1,-1,-1,44,46,48,50,-1,52,-1,-1,-1,-1,-1,-1,-1,-1,-1,-1,-1,-1],"split_conditions":[1.091E1,1.07E1,1.107E1,8.9E0,1.084E1,1.099E1,1.117E1,6.752527E0,1.032E1,1.078E1,1.088E1,1.095E1,1.102E1,1.111E1,6.616016E0,9.66E0,1.054E1,-3.4670465E0,1.083E1,1.086E1,1.09E1,1.093E1,1.097E1,2.0967052E0,1.104E1,3.9676557E0,5.0941114E0,-7.226719E0,-6.2670326E0,-5.3357544E0,-4.331524E0,-2.610074E0,-1.9829525E0,-1.7151515E0,-1.2944438E0,7.4E-1,7.3E-1,1.092E1,1.094E1,1.0932313E0,7.3E-1,2.6290596E0,3.1179183E0,-7.610426E-1,-4.9686575E-1,-3.8016823E-1,-4.2373583E-2,4.838607E-2,1.9689173E-1,5.360612E-1,7.7451104E-1,1.9139949E0,1.3862556E0],"split_indices":[0,0,0,0,0,0,0,0,0,0,0,0,0,0,0,0,0,0,0,0,0,0,0,0,0,0,0,0,0,0,0,0,0,0,0,1,1,0,0,0,1,0,0,0,0,0,0,0,0,0,0,0,0],"split_type":[0,0,0,0,0,0,0,0,0,0,0,0,0,0,0,0,0,0,0,0,0,0,0,0,0,0,0,0,0,0,0,0,0,0,0,0,0,0,0,0,0,0,0,0,0,0,0,0,0,0,0,0,0],"sum_hessian":[2.251E3,1.122E3,1.129E3,5.41E2,5.81E2,5.37E2,5.92E2,3E0,5.38E2,2.87E2,2.94E2,2.95E2,2.42E2,3.55E2,2.37E2,2.4E2,2.98E2,1.1E2,1.77E2,1.4E2,1.54E2,1.32E2,1.63E2,6.5E1,1.77E2,1.61E2,1.94E2,8.4E1,1.56E2,1.37E2,1.61E2,1.32E2,4.5E1,6.9E1,7.1E1,1.12E2,4.2E1,6.5E1,6.7E1,6.5E1,9.8E1,8.7E1,9E1,7.5E1,3.7E1,1.3E1,2.9E1,3.5E1,3E1,4.8E1,1.9E1,1.6E1,8.2E1],"tree_param":{"num_deleted":"0","num_feature":"3","num_nodes":"53","size_leaf_vector":"1"}},{"base_weights":[4.852552E-3,-8.605064E0,8.561429E0,-1.3096006E1,-4.5978146E0,3.7578979E0,1.2450579E1,5.2332087E0,-1.3303352E1,-6.7740974E0,-2.3616827E0,1.6860147E0,5.5136013E0,1.006563E1,1.500925E1,-1.5685241E1,-1.1456712E1,-7.903451E0,-5.453882E0,-3.5504777E0,-1.265026E0,7.050642E-1,2.5962818E0,3.949997E0,6.207856E0,2.5972185E0,3.279684E0,4.187364E0,5.126119E0,-5.191617E0,-4.4785075E0,-3.7408116E0,-3.0431633E0,-2.4884999E0,-2.0792148E0,-1.7308189E0,-1.4009992E0,-3.7806907E0,-2.4863796E0,-1.5953232E0,-3.6761653E-1,2.8108418E-1,1.2617502E0,3.244985E0,2.3367844E0,2.8205338E-1,1.1922189E0,5.534992E0,6.568868E0,-9.84E-1,-1.2081616E0,-1.5173808E-1,-8.1114554E-1,-1.0035242E0,-4.5012695E-1,-2.7426407E-1,-3.0085223E-2,1.0862337E-1,-6.2606506E-2,4.8602194E-1,2.3587553E-1,6.4890146E-1,1.112621E0,4.5371178E-1,7.3326826E-1,1.5204159E0,2.0914476E0,5.068291E-1,1.9789104E0],"categories":[],"categories_nodes":[],"categories_segments":[],"categories_sizes":[],"default_left":[0,0,0,0,0,0,0,0,0,0,0,0,0,0,0,0,0,0,0,0,0,0,0,0,0,0,0,0,0,0,0,0,0,0,0,0,0,0,0,0,0,0,0,0,0,0,0,0,0,0,0,0,0,0,0,0,0,0,0,0,0,0,0,0,0,0,0,0,0],"id":3,"left_children":[1,3,5,7,9,11,13,-1,15,17,19,21,23,25,27,29,31,33,35,37,39,41,43,45,47,-1,-1,-1,-1,-1,-1,-1,-1,-1,-1,-1,-1,49,51,53,55,57,59,61,63,-1,-1,65,67,-1,-1,-1,-1,-1,-1,-1,-1,-1,-1,-1,-1,-1,-1,-1,-1,-1,-1,-1,-1],"loss_changes":[1.659817E5,2.0149656E4,2.1063477E4,3.5818828E3,2.879543E3,1.8349731E3,3.65675E3,0E0,2.1339062E3,4.056836E2,3.801001E2,2.0711444E2,2.72917E2,3.0322266E2,4.146797E2,2.0023438E1,2.7235156E2,3.4482422E0,8.177246E0,2.5140503E1,4.5357346E1,2.6552048E1,1.2785889E1,2.5651855E0,9.308105E0,0E0,0E0,0E0,0E0,0E0,0E0,0E0,0E0,0E0,0E0,0E0,0E0,8.614502E-1,1.0690796E1,1.3744873E1,6.1916122E0,2.6936817E0,7.074936E0,8.034637E0,4.2753906E0,0E0,0E0,1.29626465E1,4.5561523E0,0E0,0E0,0E0,0E0,0E0,0E0,0E0,0E0,0E0,0E0,0E0,0E0,0E0,0E0,0E0,0E0,0E0,0E0,0E0,0E0],"parents":[2147483647,0,0,1,1,2,2,3,3,4,4,5,5,6,6,8,8,9,9,10,10,11,11,12,12,13,13,14,14,15,15,16,16,17,17,18,18,19,19,20,20,21,21,22,22,23,23,24,24,37,37,38,38,39,39,40,40,41,41,42,42,43,43,44,44,47,47,48,48],"right_children":[2,4,6,8,10,12,14,-1,16,18,20,22,24,26,28,30,32,34,36,38,40,42,44,46,48,-1,-1,-1,-1,-1,-1,-1,-1,-1,-1,-1,-1,50,52,54,56,58,60,62,64,-1,-1,66,68,-1,-1,-1,-1,-1,-1,-1,-1,-1,-1,-1,-1,-1,-1,-1,-1,-1,-1,-1,-1],"split_conditions":[1.091E1,1.069E1,1.106E1,8.9E0,1.084E1,1.098E1,1.115E1,5.2332087E0,1.028E1,1.079E1,1.088E1,1.094E1,1.1E1,1.109E1,1.122E1,9.46E0,1.055E1,1.077E1,1.083E1,1.087E1,1.09E1,1.093E1,7.3E-1,7.1E-1,1.103E1,2.5972185E0,3.279684E0,4.187364E0,5.126119E0,-5.191617E0,-4.4785075E0,-3.7408116E0,-3.0431633E0,-2.4884999E0,-2.0792148E0,-1.7308189E0,-1.4009992E0,7.3E-1,7.2E-1,7.1E-1,7.3E-1,7.6E-1,7.4E-1,1.096E1,1.095E1,2.8205338E-1,1.1922189E0,7.6E-1,7.2E-1,-9.84E-1,-1.2081616E0,-1.5173808E-1,-8.1114554E-1,-1.0035242E0,-4.5012695E-1,-2.7426407E-1,-3.0085223E-2,1.0862337E-1,-6.2606506E-2,4.8602194E-1,2.3587553E-1,6.4890146E-1,1.112621E0,4.5371178E-1,7.3326826E-1,1.5204159E0,2.0914476E0,5.068291E-1,1.9789104E0],"split_indices":[0,0,0,0,0,0,0,0,0,0,0,0,0,0,0,0,0,0,0,0,0,0,1,1,0,0,0,0,0,0,0,0,0,0,0,0,0,1,1,1,1,1,1,0,0,0,0,1,1,0,0,0,0,0,0,0,0,0,0,0,0,0,0,0,0,0,0,0,0],"split_type":[0,0,0,0,0,0,0,0,0,0,0,0,0,0,0,0,0,0,0,0,0,0,0,0,0,0,0,0,0,0,0,0,0,0,0,0,0,0,0,0,0,0,0,0,0,0,0,0,0,0,0,0,0,0,0,0,0,0,0,0,0,0,0,0,0,0,0,0,0],"sum_hessian":[2.251E3,1.122E3,1.129E3,5.28E2,5.94E2,5.06E2,6.23E2,3E0,5.25E2,3E2,2.94E2,2.33E2,2.73E2,3.25E2,2.98E2,2.26E2,2.99E2,1.59E2,1.41E2,1.4E2,1.54E2,1.13E2,1.2E2,8.6E1,1.87E2,1.28E2,1.97E2,2.03E2,9.5E1,6.5E1,1.61E2,1.64E2,1.35E2,1.08E2,5.1E1,9.6E1,4.5E1,1.13E2,2.7E1,1.12E2,4.2E1,6.5E1,4.8E1,3.1E1,8.9E1,1E0,8.5E1,7.1E1,1.16E2,4.2E1,7.1E1,3E0,2.4E1,4E0,1.08E2,1.3E1,2.9E1,5.6E1,9E0,2.6E1,2.2E1,1.1E1,2E1,1.2E1,7.7E1,5.7E1,1.4E1,1E0,1.15E2],"tree_param":{"num_deleted":"0","num_feature":"3","num_nodes":"69","size_leaf_vector":"1"}},{"base_weights":[4.571149E-3,-5.861059E0,6.207672E0,-8.712136E0,-2.5706537E0,3.4036942E0,9.256657E0,4.055737E0,-8.842141E0,-3.9347599E0,-1.1026218E0,1.8271841E0,4.951964E0,8.156336E0,1.1423069E1,-1.0331341E1,-6.825047E0,-1.4906012E0,-3.382564E0,-1.6741933E0,-2.9020858E-1,8.4486115E-1,2.329527E0,4.377932E0,5.9714284E0,2.1347492E0,9.105285E0,3.1763167E0,3.7888746E0,-3.4860682E0,-2.8226602E0,-2.3177595E0,-1.8407739E0,-3.5447013E0,-7.839095E-1,-2.0824745E0,-1.2952853E0,-6.6969824E-1,-1.307999E-1,1.1973644E0,4.679219E-1,1.9208038E0,2.7819436E0,3.6885173E0,1.3635378E0,2.1956801E0,1.6062955E0,2.2298148E0,2.817074E0,-1.0811497E0,-7.409645E-1,-5.218094E-1,-7.97384E-1,-4.725485E-1,-1.381164E-1,-7.9616845E-2,-4.5979157E-1,-8.842011E-2,9.691658E-3,2.5741306E-1,4.1849312E-1,-9.8177055E-3,2.2790286E-1,7.408073E-1,5.161079E-1,2.3974515E-1,8.3871204E-1,9.6978176E-1,1.56662E0],"categories":[],"categories_nodes":[],"categories_segments":[],"categories_sizes":[],"default_left":[0,0,0,0,0,0,0,0,0,0,0,0,0,0,0,0,0,0,0,0,0,0,0,0,0,0,0,0,0,0,0,0,0,0,0,0,0,0,0,0,0,0,0,0,0,0,0,0,0,0,0,0,0,0,0,0,0,0,0,0,0,0,0,0,0,0,0,0,0],"id":4,"left_children":[1,3,5,7,9,11,13,-1,15,17,19,21,23,25,27,29,31,-1,33,35,37,39,41,43,45,-1,47,-1,-1,-1,-1,-1,-1,49,-1,51,53,55,57,59,61,63,65,67,-1,-1,-1,-1,-1,-1,-1,-1,-1,-1,-1,-1,-1,-1,-1,-1,-1,-1,-1,-1,-1,-1,-1,-1,-1],"loss_changes":[8.1975625E4,1.0841035E4,9.329957E3,1.9114414E3,1.0750369E3,1.3871255E3,1.1559141E3,0E0,1.7828672E3,1.4247998E2,1.2071005E2,1.3866876E2,1.4239648E2,2.8178125E2,4.165039E1,3.103672E2,1.1710254E2,0E0,1.3820068E1,2.0971863E1,6.5062428E0,1.2461212E1,2.9420105E1,4.9052734E0,4.4799805E1,0E0,1.5996094E1,0E0,0E0,0E0,0E0,0E0,0E0,6.323242E-1,0E0,9.593292E0,1.8435593E1,1.0757873E1,2.0951238E0,2.1557617E0,7.1820965E0,6.967163E0,1.4001465E-1,1.2484009E1,0E0,0E0,0E0,0E0,0E0,0E0,0E0,0E0,0E0,0E0,0E0,0E0,0E0,0E0,0E0,0E0,0E0,0E0,0E0,0E0,0E0,0E0,0E0,0E0,0E0],"parents":[2147483647,0,0,1,1,2,2,3,3,4,4,5,5,6,6,8,8,9,9,10,10,11,11,12,12,13,13,14,14,15,15,16,16,18,18,19,19,20,20,21,21,22,22,23,23,24,24,26,26,33,33,35,35,36,36,37,37,38,38,39,39,40,40,41,41,42,42,43,43],"right_children":[2,4,6,8,10,12,14,-1,16,18,20,22,24,26,28,30,32,-1,34,36,38,40,42,44,46,-1,48,-1,-1,-1,-1,-1,-1,50,-1,52,54,56,58,60,62,64,66,68,-1,-1,-1,-1,-1,-1,-1,-1,-1,-1,-1,-1,-1,-1,-1,-1,-1,-1,-1,-1,-1,-1,-1,-1,-1],"split_conditions":[1.092E1,1.076E1,1.108E1,8.9E0,1.086E1,1.1E1,1.118E1,4.055737E0,1.05E1,1.08E1,1.089E1,1.095E1,1.106E1,1.113E1,1.123E1,1.003E1,1.064E1,-1.4906012E0,1.085E1,1.088E1,1.09E1,7.4E-1,1.098E1,1.102E1,7.4E-1,2.1347492E0,7.4E-1,3.1763167E0,3.7888746E0,-3.4860682E0,-2.8226602E0,-2.3177595E0,-1.8407739E0,7.6E-1,-7.839095E-1,7.4E-1,7.4E-1,7.5E-1,7.4E-1,7.3E-1,1.093E1,7.3E-1,7.1E-1,7.6E-1,1.3635378E0,2.1956801E0,1.6062955E0,2.2298148E0,2.817074E0,-1.0811497E0,-7.409645E-1,-5.218094E-1,-7.97384E-1,-4.725485E-1,-1.381164E-1,-7.9616845E-2,-4.5979157E-1,-8.842011E-2,9.691658E-3,2.5741306E-1,4.1849312E-1,-9.8177055E-3,2.2790286E-1,7.408073E-1,5.161079E-1,2.3974515E-1,8.3871204E-1,9.6978176E-1,1.56662E0],"split_indices":[0,0,0,0,0,0,0,0,0,0,0,0,0,0,0,0,0,0,0,0,0,1,0,0,1,0,1,0,0,0,0,0,0,1,0,1,1,1,1,1,0,1,1,1,0,0,0,0,0,0,0,0,0,0,0,0,0,0,0,0,0,0,0,0,0,0,0,0,0],"split_type":[0,0,0,0,0,0,0,0,0,0,0,0,0,0,0,0,0,0,0,0,0,0,0,0,0,0,0,0,0,0,0,0,0,0,0,0,0,0,0,0,0,0,0,0,0,0,0,0,0,0,0,0,0,0,0,0,0,0,0,0,0,0,0,0,0,0,0,0,0],"sum_hessian":[2.251E3,1.157E3,1.094E3,6.19E2,5.38E2,5.71E2,5.23E2,3E0,6.16E2,2.78E2,2.6E2,2.84E2,2.87E2,3.5E2,1.73E2,3.52E2,2.64E2,9.4E1,1.84E2,1.52E2,1.08E2,9.7E1,1.87E2,1.87E2,1E2,1.71E2,1.79E2,1.08E2,6.5E1,1.42E2,2.1E2,1.1E2,1.54E2,1.49E2,3.5E1,7.1E1,8.1E1,3.1E1,7.7E1,4.9E1,4.8E1,1.01E2,8.6E1,4.1E1,1.46E2,2.8E1,7.2E1,3E1,1.49E2,1.39E2,1E1,4.7E1,2.4E1,6E1,2.1E1,2.2E1,9E0,3.8E1,3.9E1,2E1,2.9E1,1.8E1,3E1,2.4E1,7.7E1,1E0,8.5E1,3.4E1,7E0],"tree_param":{"num_deleted":"0","num_feature":"3","num_nodes":"69","size_leaf_vector":"1"}},{"base_weights":[8.538079E-3,-4.244458E0,4.235181E0,-6.4539437E0,-2.272925E0,1.8743278E0,6.146587E0,3.1431954E0,-6.5704284E0,-3.5192966E0,-1.3277954E0,1.0650462E0,2.9954267E0,4.7237597E0,7.225517E0,-7.8839445E0,-5.658488E0,-1.1641552E0,-2.887187E0,-1.9989371E0,-7.341727E-1,3.4837705E-1,1.505676E0,2.6325562E0,3.2675648E0,4.4023914E0,5.4400134E0,6.4017344E0,8.03618E0,-2.7301722E0,-2.2453966E0,-1.8013924E0,-4.639204E0,-1.449024E0,-8.898263E-1,-2.229065E0,-1.7438227E0,-9.9415153E-1,-3.4130964E-1,1.5149793E-1,6.0645145E-1,1.1794312E0,1.7705762E0,6.790385E-1,3.1139648E0,3.7359946E0,8.834648E-1,1.4298615E0,1.1853544E0,5.557028E0,7.720185E-1,1.3437066E0,1.9537231E0,2.2419424E0,2.6944206E0,-1.4023968E0,-2.545023E-1,-7.540104E-1,2.423672E-1,-5.3239155E-1,-7.0528895E-1,-2.5568596E-1,-5.3385943E-1,-9.01456E-1,-2.7266917E-1,-1.2020386E-1,2.3935004E-1,-5.883894E-2,6.7376845E-2,2.4261552E-1,1.0279208E-1,4.3412247E-1,3.1108797E-1,8.4242773E-1,4.6102223E-1,5.549451E-1,9.8632646E-1,2.2627373E-1,1.1363392E0,8.764878E-1,1.7104409E0],"categories":[],"categories_nodes":[],"categories_segments":[],"categories_sizes":[],"default_left":[0,0,0,0,0,0,0,0,0,0,0,0,0,0,0,0,0,0,0,0,0,0,0,0,0,0,0,0,0,0,0,0,0,0,0,0,0,0,0,0,0,0,0,0,0,0,0,0,0,0,0,0,0,0,0,0,0,0,0,0,0,0,0,0,0,0,0,0,0,0,0,0,0,0,0,0,0,0,0,0,0],"id":5,"left_children":[1,3,5,7,9,11,13,-1,15,17,19,21,23,25,27,29,31,-1,33,35,37,39,41,43,45,47,49,51,53,-1,-1,-1,55,57,-1,59,61,63,65,67,69,71,73,-1,75,77,-1,-1,-1,79,-1,-1,-1,-1,-1,-1,-1,-1,-1,-1,-1,-1,-1,-1,-1,-1,-1,-1,-1,-1,-1,-1,-1,-1,-1,-1,-1,-1,-1,-1,-1],"loss_changes":[4.0499695E4,4.877201E3,5.087658E3,1.1121543E3,6.962268E2,4.5680322E2,9.23791E2,0E0,5.8545703E2,4.724878E1,1.3399011E2,9.294803E1,1.2332886E1,3.8659668E1,1.8429297E2,3.53584E1,8.293262E1,0E0,6.7088623E0,5.447632E0,1.8249458E1,5.7004023E0,1.372699E1,1.000946E1,6.6831055E0,1.2850342E1,1.2534668E1,9.134277E0,2.5483398E1,0E0,0E0,0E0,7.323242E0,1.8845459E1,0E0,2.593689E-1,1.0301666E0,1.5953789E1,5.324355E0,1.7210195E0,2.337555E0,1.7406235E0,1.9702911E1,0E0,2.4863892E0,3.939331E0,0E0,0E0,0E0,1.2272705E1,0E0,0E0,0E0,0E0,0E0,0E0,0E0,0E0,0E0,0E0,0E0,0E0,0E0,0E0,0E0,0E0,0E0,0E0,0E0,0E0,0E0,0E0,0E0,0E0,0E0,0E0,0E0,0E0,0E0,0E0,0E0],"parents":[2147483647,0,0,1,1,2,2,3,3,4,4,5,5,6,6,8,8,9,9,10,10,11,11,12,12,13,13,14,14,15,15,16,16,18,18,19,19,20,20,21,21,22,22,23,23,24,24,25,25,26,26,27,27,28,28,32,32,33,33,35,35,36,36,37,37,38,38,39,39,40,40,41,41,42,42,44,44,45,45,49,49],"right_children":[2,4,6,8,10,12,14,-1,16,18,20,22,24,26,28,30,32,-1,34,36,38,40,42,44,46,48,50,52,54,-1,-1,-1,56,58,-1,60,62,64,66,68,70,72,74,-1,76,78,-1,-1,-1,80,-1,-1,-1,-1,-1,-1,-1,-1,-1,-1,-1,-1,-1,-1,-1,-1,-1,-1,-1,-1,-1,-1,-1,-1,-1,-1,-1,-1,-1,-1,-1],"split_conditions":[1.091E1,1.069E1,1.106E1,8.9E0,1.083E1,1.099E1,1.113E1,3.1431954E0,1.025E1,1.079E1,1.087E1,1.094E1,1.103E1,1.111E1,1.118E1,9.31E0,1.062E1,-1.1641552E0,7.1E-1,1.085E1,1.089E1,1.093E1,1.097E1,7.5E-1,7.5E-1,7.5E-1,7.8E-1,7.3E-1,1.124E1,-2.7301722E0,-2.2453966E0,-1.8013924E0,7.5E-1,1.082E1,-8.898263E-1,7.3E-1,7.1E-1,7.1E-1,7.6E-1,7.3E-1,7.4E-1,7.3E-1,7.3E-1,6.790385E-1,1.1E1,7.2E-1,8.834648E-1,1.4298615E0,1.1853544E0,7.1E-1,7.720185E-1,1.3437066E0,1.9537231E0,2.2419424E0,2.6944206E0,-1.4023968E0,-2.545023E-1,-7.540104E-1,2.423672E-1,-5.3239155E-1,-7.0528895E-1,-2.5568596E-1,-5.3385943E-1,-9.01456E-1,-2.7266917E-1,-1.2020386E-1,2.3935004E-1,-5.883894E-2,6.7376845E-2,2.4261552E-1,1.0279208E-1,4.3412247E-1,3.1108797E-1,8.4242773E-1,4.6102223E-1,5.549451E-1,9.8632646E-1,2.2627373E-1,1.1363392E0,8.764878E-1,1.7104409E0],"split_indices":[0,0,0,0,0,0,0,0,0,0,0,0,0,0,0,0,0,0,1,0,0,0,0,1,1,1,1,1,0,0,0,0,1,0,0,1,1,1,1,1,1,1,1,0,0,1,0,0,0,1,0,0,0,0,0,0,0,0,0,0,0,0,0,0,0,0,0,0,0,0,0,0,0,0,0,0,0,0,0,0,0],"split_type":[0,0,0,0,0,0,0,0,0,0,0,0,0,0,0,0,0,0,0,0,0,0,0,0,0,0,0,0,0,0,0,0,0,0,0,0,0,0,0,0,0,0,0,0,0,0,0,0,0,0,0,0,0,0,0,0,0,0,0,0,0,0,0,0,0,0,0,0,0,0,0,0,0,0,0,0,0,0,0,0,0],"sum_hessian":[2.251E3,1.122E3,1.129E3,5.28E2,5.94E2,5.06E2,6.23E2,3E0,5.25E2,2.55E2,3.39E2,2.95E2,2.11E2,2.71E2,3.52E2,2.12E2,3.13E2,1.59E2,9.6E1,1.58E2,1.81E2,1.13E2,1.82E2,9.5E1,1.16E2,1.92E2,7.9E1,1.79E2,1.73E2,4.7E1,1.65E2,2.3E2,8.3E1,6E0,9E1,7.9E1,7.9E1,1.08E2,7.3E1,6.5E1,4.8E1,8.4E1,9.8E1,5.7E1,3.8E1,4.3E1,7.3E1,1.01E2,9.1E1,7.5E1,4E0,1.2E1,1.67E2,1.14E2,5.9E1,8.2E1,1E0,4E0,2E0,2E1,5.9E1,4E0,7.5E1,3E0,1.05E2,7E1,3E0,1.1E1,5.4E1,2.6E1,2.2E1,2.6E1,5.8E1,1.6E1,8.2E1,6E0,3.2E1,1E0,4.2E1,5E0,7E1],"tree_param":{"num_deleted":"0","num_feature":"3","num_nodes":"81","size_leaf_vector":"1"}},{"base_weights":[1.0478859E-2,-2.8897748E0,3.077587E0,-4.257462E0,-1.2152412E0,1.7524834E0,4.67433E0,2.4359763E0,-4.328838E0,-1.8728884E0,-5.504181E-1,9.171067E-1,2.5003626E0,3.9436615E0,5.4498296E0,-5.3033714E0,-3.4705544E0,-2.192684E0,-1.5650992E0,-8.3167267E-1,-1.5057985E-1,6.00788E-1,1.3288372E0,2.0730083E0,2.8938167E0,3.4512928E0,4.1987157E0,1.5454086E0,1.9487797E0,-1.9096109E0,-1.5133448E0,-1.1831726E0,-9.214515E-1,-6.653966E-1,-2.5991794E-1,-8.6910415E-1,-1.6015246E0,-1.0591469E0,-6.2179685E-1,-3.6919653E-1,-5.896045E-2,3.4186265E-1,8.3436817E-1,2.4795594E0,1.2380215E0,1.8848982E0,7.2910255E-1,1.2919829E0,2.6759868E0,3.4971938E0,2.6796952E-1,3.7779155E0,1.3536242E0,1.9389382E-1,-4.1832328E-1,-6.009531E-1,-4.5283476E-1,-2.4793878E-1,-4.390605E-1,-6.9862866E-1,-1.5824921E-1,-2.227677E-2,-3.0319214E-1,-1.7045793E-1,-7.126824E-3,1.7727402E-1,2.8986797E-2,3.087089E-1,2.1934322E-1,7.741928E-2,8.280149E-1,2.820945E-1,4.4730917E-1,4.734653E-1,6.0234E-1,7.783124E-1,1.322884E0,6.9021523E-1,1.0845144E0,3.2478905E-1,1.1397405E0],"categories":[],"categories_nodes":[],"categories_segments":[],"categories_sizes":[],"default_left":[0,0,0,0,0,0,0,0,0,0,0,0,0,0,0,0,0,0,0,0,0,0,0,0,0,0,0,0,0,0,0,0,0,0,0,0,0,0,0,0,0,0,0,0,0,0,0,0,0,0,0,0,0,0,0,0,0,0,0,0,0,0,0,0,0,0,0,0,0,0,0,0,0,0,0,0,0,0,0,0,0],"id":6,"left_children":[1,3,5,7,9,11,13,-1,15,17,19,21,23,25,27,29,31,33,35,37,39,41,43,45,47,49,51,-1,-1,-1,-1,-1,-1,-1,-1,53,55,57,59,61,63,65,67,69,71,73,-1,-1,75,77,-1,79,-1,-1,-1,-1,-1,-1,-1,-1,-1,-1,-1,-1,-1,-1,-1,-1,-1,-1,-1,-1,-1,-1,-1,-1,-1,-1,-1,-1,-1],"loss_changes":[2.0041314E4,2.6469219E3,2.308664E3,5.9790234E2,2.2719745E2,3.7256348E2,2.5955762E2,0E0,5.1188867E2,2.2356812E1,2.9225868E1,3.6319504E1,4.7134644E1,1.8034424E1,4.0847168E1,4.899707E1,5.2109375E1,2.307129E0,2.0812988E0,6.645859E0,2.1614504E0,9.572975E0,9.784164E0,5.8378906E0,3.833081E1,7.913452E0,4.8430176E0,0E0,0E0,0E0,0E0,0E0,0E0,0E0,0E0,8.065753E0,1.7470093E0,5.565262E0,1.1970787E1,5.978965E0,1.3848248E0,4.7680016E0,9.5560074E-1,4.272587E0,7.335388E0,8.2650757E-1,0E0,0E0,8.792236E0,4.6557617E0,0E0,2.9077148E-1,0E0,0E0,0E0,0E0,0E0,0E0,0E0,0E0,0E0,0E0,0E0,0E0,0E0,0E0,0E0,0E0,0E0,0E0,0E0,0E0,0E0,0E0,0E0,0E0,0E0,0E0,0E0,0E0,0E0],"parents":[2147483647,0,0,1,1,2,2,3,3,4,4,5,5,6,6,8,8,9,9,10,10,11,11,12,12,13,13,14,14,15,15,16,16,17,17,18,18,19,19,20,20,21,21,22,22,23,23,24,24,25,25,26,26,35,35,36,36,37,37,38,38,39,39,40,40,41,41,42,42,43,43,44,44,45,45,48,48,49,49,51,51],"right_children":[2,4,6,8,10,12,14,-1,16,18,20,22,24,26,28,30,32,34,36,38,40,42,44,46,48,50,52,-1,-1,-1,-1,-1,-1,-1,-1,54,56,58,60,62,64,66,68,70,72,74,-1,-1,76,78,-1,80,-1,-1,-1,-1,-1,-1,-1,-1,-1,-1,-1,-1,-1,-1,-1,-1,-1,-1,-1,-1,-1,-1,-1,-1,-1,-1,-1,-1,-1],"split_conditions":[1.092E1,1.077E1,1.109E1,8.9E0,1.086E1,1.1E1,1.117E1,2.4359763E0,1.041E1,1.082E1,1.089E1,1.097E1,1.105E1,1.112E1,1.125E1,9.37E0,1.063E1,7.6E-1,7.1E-1,1.088E1,1.09E1,1.094E1,7.2E-1,7.6E-1,7.3E-1,7.8E-1,7.5E-1,1.5454086E0,1.9487797E0,-1.9096109E0,-1.5133448E0,-1.1831726E0,-9.214515E-1,-6.653966E-1,-2.5991794E-1,1.083E1,1.083E1,7.4E-1,7.1E-1,7.5E-1,7.2E-1,7.4E-1,7.3E-1,7.1E-1,7.4E-1,1.102E1,7.2910255E-1,1.2919829E0,7.9E-1,7.2E-1,2.6796952E-1,6.9E-1,1.3536242E0,1.9389382E-1,-4.1832328E-1,-6.009531E-1,-4.5283476E-1,-2.4793878E-1,-4.390605E-1,-6.9862866E-1,-1.5824921E-1,-2.227677E-2,-3.0319214E-1,-1.7045793E-1,-7.126824E-3,1.7727402E-1,2.8986797E-2,3.087089E-1,2.1934322E-1,7.741928E-2,8.280149E-1,2.820945E-1,4.4730917E-1,4.734653E-1,6.0234E-1,7.783124E-1,1.322884E0,6.9021523E-1,1.0845144E0,3.2478905E-1,1.1397405E0],"split_indices":[0,0,0,0,0,0,0,0,0,0,0,0,0,0,0,0,0,1,1,0,0,0,1,1,1,1,1,0,0,0,0,0,0,0,0,0,0,1,1,1,1,1,1,1,1,0,0,0,1,1,0,1,0,0,0,0,0,0,0,0,0,0,0,0,0,0,0,0,0,0,0,0,0,0,0,0,0,0,0,0,0],"split_type":[0,0,0,0,0,0,0,0,0,0,0,0,0,0,0,0,0,0,0,0,0,0,0,0,0,0,0,0,0,0,0,0,0,0,0,0,0,0,0,0,0,0,0,0,0,0,0,0,0,0,0,0,0,0,0,0,0,0,0,0,0,0,0,0,0,0,0,0,0,0,0,0,0,0,0,0,0,0,0,0,0],"sum_hessian":[2.251E3,1.157E3,1.094E3,6.36E2,5.21E2,5.99E2,4.95E2,3E0,6.33E2,2.61E2,2.6E2,2.84E2,3.15E2,2.58E2,2.37E2,2.94E2,3.39E2,1.25E2,1.36E2,1.52E2,1.08E2,1.62E2,1.22E2,1.54E2,1.61E2,9.3E1,1.65E2,1.89E2,4.8E1,5.3E1,2.41E2,1.51E2,1.88E2,1.22E2,3E0,8E0,1.28E2,7.1E1,8.1E1,3.1E1,7.7E1,7.8E1,8.4E1,7E0,1.15E2,1.05E2,4.9E1,1.9E1,1.42E2,9.1E1,2E0,7.6E1,8.9E1,2E0,6E0,2E1,1.08E2,4.7E1,2.4E1,3E0,7.8E1,2.2E1,9E0,4E0,7.3E1,3.8E1,4E1,2.6E1,5.8E1,1E0,6E0,5.5E1,6E1,3.4E1,7.1E1,1.38E2,4E0,1E1,8.1E1,1E0,7.5E1],"tree_param":{"num_deleted":"0","num_feature":"3","num_nodes":"81","size_leaf_vector":"1"}},{"base_weights":[1.1145388E-2,-2.09396E0,2.1032004E0,-3.133934E0,-1.0686346E0,1.1737537E0,3.2888765E0,1.8878821E0,-3.196341E0,-1.5282518E0,-5.2391773E-1,5.306654E-1,1.7301668E0,2.8924377E0,4.005893E0,-3.9637232E0,-2.7342293E0,-5.413758E-1,-1.2269913E0,-8.082118E-1,-3.2428297E-1,1.8276097E-1,7.444929E-1,1.434105E0,2.0466168E0,2.5585656E0,3.1434662E0,1.1623476E0,1.6370819E0,-1.4610088E0,-1.1344707E0,-9.2382014E-1,-2.4325726E0,-1.3307571E0,-1.0235639E0,-6.632902E-1,-3.4263214E-1,-6.404347E-1,-1.4891045E-1,7.4770264E-2,3.2448804E-1,1.092505E0,6.330815E-1,1.3250158E0,1.6750532E0,9.237673E-1,1.887884E0,2.6226468E0,9.297387E-1,2.4126072E0,9.820663E-1,-7.505235E-1,-5.8216286E-1,-4.3183622E-1,-2.699132E-1,-2.231686E-1,-3.418541E-1,-2.2185886E-1,-1.2270951E-1,-5.1794434E-1,-1.7006302E-1,-5.3677406E-2,1.8709975E-1,3.765341E-2,-6.657933E-2,6.985686E-2,1.9757001E-1,2.1952651E-1,4.8035875E-1,1.397687E-1,2.2430763E-1,3.7678632E-1,5.1898474E-1,1.3117294E-1,5.1474625E-1,5.347085E-1,8.4180105E-1,5.3921306E-1,8.082288E-1,3.1460342E-1,3.241539E-2,6.171997E-1,9.157395E-1],"categories":[],"categories_nodes":[],"categories_segments":[],"categories_sizes":[],"default_left":[0,0,0,0,0,0,0,0,0,0,0,0,0,0,0,0,0,0,0,0,0,0,0,0,0,0,0,0,0,0,0,0,0,0,0,0,0,0,0,0,0,0,0,0,0,0,0,0,0,0,0,0,0,0,0,0,0,0,0,0,0,0,0,0,0,0,0,0,0,0,0,0,0,0,0,0,0,0,0,0,0,0,0],"id":7,"left_children":[1,3,5,7,9,11,13,-1,15,17,19,21,23,25,27,29,31,-1,33,35,37,39,41,43,45,47,49,-1,-1,-1,-1,-1,51,53,55,57,-1,59,61,63,65,67,69,71,73,-1,75,77,79,81,-1,-1,-1,-1,-1,-1,-1,-1,-1,-1,-1,-1,-1,-1,-1,-1,-1,-1,-1,-1,-1,-1,-1,-1,-1,-1,-1,-1,-1,-1,-1,-1,-1],"loss_changes":[9.922203E3,1.1941187E3,1.2414258E3,3.478003E2,1.4115411E2,2.2629926E2,1.2940283E2,0E0,1.8561963E2,2.33432E1,1.4550957E1,2.1883827E1,2.8919128E1,1.902832E1,1.2033691E1,1.5591553E1,2.8848145E1,0E0,1.8041992E0,4.4200287E0,8.498503E0,1.7205315E0,6.4037323E0,2.4855042E0,2.073993E1,1.2592041E1,9.21582E0,0E0,0E0,0E0,0E0,0E0,1.6459961E0,3.2028503E0,9.358368E-1,1.1901131E0,0E0,3.4151058E0,2.4536057E0,1.0214819E0,1.3466487E0,6.7192535E0,2.3533897E0,1.4068146E0,1.8738251E0,0E0,8.852844E0,3.2947998E0,5.7080555E-1,7.671509E-1,0E0,0E0,0E0,0E0,0E0,0E0,0E0,0E0,0E0,0E0,0E0,0E0,0E0,0E0,0E0,0E0,0E0,0E0,0E0,0E0,0E0,0E0,0E0,0E0,0E0,0E0,0E0,0E0,0E0,0E0,0E0,0E0,0E0],"parents":[2147483647,0,0,1,1,2,2,3,3,4,4,5,5,6,6,8,8,9,9,10,10,11,11,12,12,13,13,14,14,15,15,16,16,18,18,19,19,20,20,21,21,22,22,23,23,24,24,25,25,26,26,32,32,33,33,34,34,35,35,37,37,38,38,39,39,40,40,41,41,42,42,43,43,44,44,46,46,47,47,48,48,49,49],"right_children":[2,4,6,8,10,12,14,-1,16,18,20,22,24,26,28,30,32,-1,34,36,38,40,42,44,46,48,50,-1,-1,-1,-1,-1,52,54,56,58,-1,60,62,64,66,68,70,72,74,-1,76,78,80,82,-1,-1,-1,-1,-1,-1,-1,-1,-1,-1,-1,-1,-1,-1,-1,-1,-1,-1,-1,-1,-1,-1,-1,-1,-1,-1,-1,-1,-1,-1,-1,-1,-1],"split_conditions":[1.091E1,1.072E1,1.109E1,8.9E0,1.085E1,1.099E1,1.118E1,1.8878821E0,1.023E1,1.08E1,1.088E1,1.094E1,1.105E1,1.113E1,2.64E1,9.17E0,1.052E1,-5.413758E-1,7.4E-1,7.4E-1,7.3E-1,1.093E1,7.3E-1,7.6E-1,7.3E-1,7.8E-1,7.4E-1,1.1623476E0,1.6370819E0,-1.4610088E0,-1.1344707E0,-9.2382014E-1,7.4E-1,1.084E1,1.083E1,1.087E1,-3.4263214E-1,7E-1,7.6E-1,7.6E-1,7.5E-1,1.097E1,7.4E-1,1.104E1,1.1E1,9.237673E-1,7.8E-1,7.2E-1,7.9E-1,1.117E1,9.820663E-1,-7.505235E-1,-5.8216286E-1,-4.3183622E-1,-2.699132E-1,-2.231686E-1,-3.418541E-1,-2.2185886E-1,-1.2270951E-1,-5.1794434E-1,-1.7006302E-1,-5.3677406E-2,1.8709975E-1,3.765341E-2,-6.657933E-2,6.985686E-2,1.9757001E-1,2.1952651E-1,4.8035875E-1,1.397687E-1,2.2430763E-1,3.7678632E-1,5.1898474E-1,1.3117294E-1,5.1474625E-1,5.347085E-1,8.4180105E-1,5.3921306E-1,8.082288E-1,3.1460342E-1,3.241539E-2,6.171997E-1,9.157395E-1],"split_indices":[0,0,0,0,0,0,0,0,0,0,0,0,0,0,2,0,0,0,1,1,1,0,1,1,1,1,1,0,0,0,0,0,1,0,0,0,0,1,1,1,1,0,1,0,0,0,1,1,1,0,0,0,0,0,0,0,0,0,0,0,0,0,0,0,0,0,0,0,0,0,0,0,0,0,0,0,0,0,0,0,0,0,0],"split_type":[0,0,0,0,0,0,0,0,0,0,0,0,0,0,0,0,0,0,0,0,0,0,0,0,0,0,0,0,0,0,0,0,0,0,0,0,0,0,0,0,0,0,0,0,0,0,0,0,0,0,0,0,0,0,0,0,0,0,0,0,0,0,0,0,0,0,0,0,0,0,0,0,0,0,0,0,0,0,0,0,0,0,0],"sum_hessian":[2.251E3,1.122E3,1.129E3,5.56E2,5.66E2,6.34E2,4.95E2,3E0,5.53E2,3.06E2,2.6E2,2.95E2,3.39E2,3.22E2,1.73E2,2.05E2,3.48E2,1.57E2,1.49E2,1.06E2,1.54E2,1.13E2,1.82E2,1.78E2,1.61E2,1.43E2,1.79E2,1.62E2,1.1E1,3E1,1.75E2,1.58E2,1.9E2,9.5E1,5.4E1,7.6E1,3E1,5.4E1,1E2,6.5E1,4.8E1,4.2E1,1.4E2,1.27E2,5.1E1,1.9E1,1.42E2,1.37E2,6E0,3E1,1.49E2,1.63E2,2.7E1,7.4E1,2.1E1,1.8E1,3.6E1,5.7E1,1.9E1,2E0,5.2E1,9.7E1,3E0,5.6E1,9E0,3.9E1,9E0,2.6E1,1.6E1,5.9E1,8.1E1,1.12E2,1.5E1,2E0,4.9E1,1.3E2,1.2E1,1.3E1,1.24E2,5E0,1E0,2.2E1,8E0],"tree_param":{"num_deleted":"0","num_feature":"3","num_nodes":"83","size_leaf_vector":"1"}},{"base_weights":[1.0528183E-2,-1.425863E0,1.5295514E0,-2.2740984E0,-7.6869977E-1,9.451227E-1,2.4242992E0,1.4631095E0,-2.3265495E0,-1.1328545E0,-3.244421E-1,4.2271748E-1,1.2802778E0,2.2685483E0,9.760917E-1,-2.7098188E0,-1.932484E0,-4.2032865E-1,-9.4024837E-1,-4.7341666E-1,-6.451861E-2,2.4532264E-1,5.864688E-1,1.0124868E0,1.4867128E0,2.0743134E0,2.4743702E0,-9.2073244E-1,-7.3955184E-1,-6.2376356E-1,-5.3978974E-1,-1.0940809E0,-8.387281E-1,-6.059719E-1,-3.7178516E-1,1.3410521E-3,-2.5508907E-1,4.5414987E-1,2.5971973E-2,1.3293295E0,5.098494E-1,9.345105E-1,1.1849575E0,1.4604841E0,1.1082264E0,1.7963277E0,6.512074E-1,8.3344823E-1,6.927688E-1,-2.9640436E-1,-4.0502384E-1,-2.794746E-1,-2.0189643E-1,-1.6846356E-1,-3.1809294E-1,-4.5099106E-1,-9.7673684E-2,1.67688E-1,-3.7331618E-3,-1.5556607E-1,4.1822914E-2,7.038574E-4,2.1556893E-1,-1.1951673E-2,7.1766816E-2,-5.828095E-2,4.9604294E-1,1.0089651E-1,2.0680213E-1,3.0931392E-1,2.1591182E-1,4.8744988E-1,3.1653115E-1,5.041699E-1,3.6325508E-1,5.7494074E-1,5.627747E-2],"categories":[],"categories_nodes":[],"categories_segments":[],"categories_sizes":[],"default_left":[0,0,0,0,0,0,0,0,0,0,0,0,0,0,0,0,0,0,0,0,0,0,0,0,0,0,0,0,0,0,0,0,0,0,0,0,0,0,0,0,0,0,0,0,0,0,0,0,0,0,0,0,0,0,0,0,0,0,0,0,0,0,0,0,0,0,0,0,0,0,0,0,0,0,0,0,0],"id":8,"left_children":[1,3,5,7,9,11,13,-1,15,17,19,21,23,25,-1,27,29,-1,31,33,35,37,39,41,43,45,47,-1,-1,-1,-1,49,51,53,55,57,59,61,63,65,67,69,71,73,-1,75,-1,-1,-1,-1,-1,-1,-1,-1,-1,-1,-1,-1,-1,-1,-1,-1,-1,-1,-1,-1,-1,-1,-1,-1,-1,-1,-1,-1,-1,-1,-1],"loss_changes":[4.915846E3,6.437551E2,5.70302E2,2.0076416E2,1.0543564E2,1.1571649E2,4.8420654E1,0E0,7.058203E1,1.7230286E1,1.1431162E1,7.4378166E0,2.082843E1,9.539307E0,0E0,1.4584717E1,1.1639404E0,0E0,2.3931885E0,2.3074036E0,1.3683908E0,5.805617E0,7.0061035E0,1.299942E0,7.6894836E0,1.3251343E0,2.2636719E0,0E0,0E0,0E0,0E0,8.654785E-1,1.4044876E0,1.0193672E0,5.209422E0,6.372678E-1,2.9825106E0,7.7634E0,8.9368623E-1,6.2476597E0,3.6303482E0,1.9122009E0,1.2558517E0,1.0326569E1,0E0,1.04639435E1,0E0,0E0,0E0,0E0,0E0,0E0,0E0,0E0,0E0,0E0,0E0,0E0,0E0,0E0,0E0,0E0,0E0,0E0,0E0,0E0,0E0,0E0,0E0,0E0,0E0,0E0,0E0,0E0,0E0,0E0,0E0],"parents":[2147483647,0,0,1,1,2,2,3,3,4,4,5,5,6,6,8,8,9,9,10,10,11,11,12,12,13,13,15,15,16,16,18,18,19,19,20,20,21,21,22,22,23,23,24,24,25,25,26,26,31,31,32,32,33,33,34,34,35,35,36,36,37,37,38,38,39,39,40,40,41,41,42,42,43,43,45,45],"right_children":[2,4,6,8,10,12,14,-1,16,18,20,22,24,26,-1,28,30,-1,32,34,36,38,40,42,44,46,48,-1,-1,-1,-1,50,52,54,56,58,60,62,64,66,68,70,72,74,-1,76,-1,-1,-1,-1,-1,-1,-1,-1,-1,-1,-1,-1,-1,-1,-1,-1,-1,-1,-1,-1,-1,-1,-1,-1,-1,-1,-1,-1,-1,-1,-1],"split_conditions":[1.092E1,1.068E1,1.111E1,8.9E0,1.085E1,1.099E1,1.123E1,1.4631095E0,1.034E1,1.078E1,1.089E1,1.096E1,1.105E1,1.117E1,9.760917E-1,9.78E0,1.052E1,-4.2032865E-1,1.081E1,1.087E1,7.5E-1,7.4E-1,7.2E-1,7.6E-1,8E-1,7.4E-1,7.5E-1,-9.2073244E-1,-7.3955184E-1,-6.2376356E-1,-5.3978974E-1,7.4E-1,7.4E-1,7.5E-1,7.1E-1,7.1E-1,1.091E1,7.3E-1,7.6E-1,7.1E-1,7.4E-1,7.5E-1,1.102E1,7.5E-1,1.1082264E0,1.115E1,6.512074E-1,8.3344823E-1,6.927688E-1,-2.9640436E-1,-4.0502384E-1,-2.794746E-1,-2.0189643E-1,-1.6846356E-1,-3.1809294E-1,-4.5099106E-1,-9.7673684E-2,1.67688E-1,-3.7331618E-3,-1.5556607E-1,4.1822914E-2,7.038574E-4,2.1556893E-1,-1.1951673E-2,7.1766816E-2,-5.828095E-2,4.9604294E-1,1.0089651E-1,2.0680213E-1,3.0931392E-1,2.1591182E-1,4.8744988E-1,3.1653115E-1,5.041699E-1,3.6325508E-1,5.7494074E-1,5.627747E-2],"split_indices":[0,0,0,0,0,0,0,0,0,0,0,0,0,0,0,0,0,0,0,0,1,1,1,1,1,1,1,0,0,0,0,1,1,1,1,1,0,1,1,1,1,1,0,1,0,0,0,0,0,0,0,0,0,0,0,0,0,0,0,0,0,0,0,0,0,0,0,0,0,0,0,0,0,0,0,0,0],"split_type":[0,0,0,0,0,0,0,0,0,0,0,0,0,0,0,0,0,0,0,0,0,0,0,0,0,0,0,0,0,0,0,0,0,0,0,0,0,0,0,0,0,0,0,0,0,0,0,0,0,0,0,0,0,0,0,0,0,0,0,0,0,0,0,0,0,0,0,0,0,0,0,0,0,0,0,0,0],"sum_hessian":[2.251E3,1.157E3,1.094E3,5.04E2,6.53E2,6.63E2,4.31E2,3E0,5.01E2,3.58E2,2.95E2,2.6E2,4.03E2,3.66E2,6.5E1,2.51E2,2.5E2,1.47E2,2.11E2,1.87E2,1.08E2,1.26E2,1.34E2,1.78E2,2.25E2,1.94E2,1.72E2,9.7E1,1.54E2,1.12E2,1.38E2,8E1,1.31E2,7.9E1,1.08E2,8.1E1,2.7E1,6.4E1,6.2E1,1.1E1,1.23E2,1.27E2,5.1E1,2.24E2,1E0,5.5E1,1.39E2,5.5E1,1.17E2,6E1,2E1,8.1E1,5E1,7.4E1,5E0,3E0,1.05E2,1E0,8E1,1.6E1,1.1E1,2.4E1,4E1,4.8E1,1.4E1,2E0,9E0,6.4E1,5.9E1,8.5E1,4.2E1,9E0,4.2E1,1.16E2,1.08E2,5.1E1,4E0],"tree_param":{"num_deleted":"0","num_feature":"3","num_nodes":"77","size_leaf_vector":"1"}},{"base_weights":[9.217795E-3,-9.7585547E-1,1.1080514E0,-1.4738135E0,-3.9945132E-1,6.990258E-1,1.7057695E0,1.1339092E0,-1.504634E0,-6.5057343E-1,-1.7198242E-1,3.6014172E-1,9.2459536E-1,1.5956352E0,6.877015E-1,-1.9034617E0,-1.2382915E0,-7.5647134E-1,-5.484295E-1,-3.8061863E-1,-7.3614836E-2,2.6258454E-1,5.4550976E-1,9.104651E-1,9.41993E-1,1.4585955E0,1.7408785E0,-7.9671776E-1,-1.808914E0,-4.23243E-1,-1.0593238E0,-1.3069087E0,-6.9245636E-1,-3.4940103E-1,-6.297917E-1,-2.3980021E-2,-5.585512E-1,-3.3098856E-1,1.5814997E-3,7.9076815E-1,2.0600323E-1,5.9065396E-1,7.763815E-3,7.656852E-1,1.0996722E0,2.020672E-1,1.4757093E0,8.7633365E-1,1.709992E0,-5.658465E-1,-4.4447228E-1,-3.3082235E-1,-2.4753806E-1,-8.012352E-2,-4.4645014E-1,-2.1826597E-1,-1.7062907E-1,-1.9730344E-1,-2.7236987E-2,-1.959117E-1,-9.975231E-2,-3.2415694E-1,2.474209E-2,-2.1855861E-1,-4.9551606E-2,-1.4177868E-2,-1.6682443E-1,-1.3111103E-2,6.256289E-2,1.6301177E-1,5.045075E-1,6.4506054E-2,-5.5765916E-2,1.426699E-1,3.60956E-1,4.3748656E-1,2.0766875E-1,3.1603706E-1,5.304856E-1,4.2303118E-1,5.235306E-1,1.866108E-1,5.2170444E-1],"categories":[],"categories_nodes":[],"categories_segments":[],"categories_sizes":[],"default_left":[0,0,0,0,0,0,0,0,0,0,0,0,0,0,0,0,0,0,0,0,0,0,0,0,0,0,0,0,0,0,0,0,0,0,0,0,0,0,0,0,0,0,0,0,0,0,0,0,0,0,0,0,0,0,0,0,0,0,0,0,0,0,0,0,0,0,0,0,0,0,0,0,0,0,0,0,0,0,0,0,0,0,0],"id":9,"left_children":[1,3,5,7,9,11,13,-1,15,17,19,21,23,25,-1,27,29,31,33,35,37,39,41,43,-1,45,47,-1,49,-1,51,53,55,57,59,61,63,65,67,69,71,73,-1,75,77,-1,79,-1,81,-1,-1,-1,-1,-1,-1,-1,-1,-1,-1,-1,-1,-1,-1,-1,-1,-1,-1,-1,-1,-1,-1,-1,-1,-1,-1,-1,-1,-1,-1,-1,-1,-1,-1],"loss_changes":[2.4387173E3,3.403971E2,2.591809E2,1.0882764E2,3.1419708E1,4.8131195E1,2.4250122E1,0E0,6.49895E1,2.419136E0,5.9441853E0,4.46817E0,9.036621E0,4.765564E0,0E0,1.3119446E1,1.0330688E1,3.5347824E0,1.9984474E0,5.8881655E0,3.8518825E0,4.887719E0,2.0255833E0,9.5401E0,0E0,1.6258545E0,1.3113403E0,0E0,2.9450684E0,0E0,1.0424042E0,1.8642769E0,8.5437775E-2,3.2886915E0,4.463234E-1,3.6882467E0,4.0253353E0,2.847661E0,1.4618185E0,2.6127834E0,5.8414984E-1,5.0674E0,0E0,1.0081474E1,3.143036E0,0E0,8.971863E-1,0E0,4.317627E0,0E0,0E0,0E0,0E0,0E0,0E0,0E0,0E0,0E0,0E0,0E0,0E0,0E0,0E0,0E0,0E0,0E0,0E0,0E0,0E0,0E0,0E0,0E0,0E0,0E0,0E0,0E0,0E0,0E0,0E0,0E0,0E0,0E0,0E0],"parents":[2147483647,0,0,1,1,2,2,3,3,4,4,5,5,6,6,8,8,9,9,10,10,11,11,12,12,13,13,15,15,16,16,17,17,18,18,19,19,20,20,21,21,22,22,23,23,25,25,26,26,28,28,30,30,31,31,32,32,33,33,34,34,35,35,36,36,37,37,38,38,39,39,40,40,41,41,43,43,44,44,46,46,48,48],"right_children":[2,4,6,8,10,12,14,-1,16,18,20,22,24,26,-1,28,30,32,34,36,38,40,42,44,-1,46,48,-1,50,-1,52,54,56,58,60,62,64,66,68,70,72,74,-1,76,78,-1,80,-1,82,-1,-1,-1,-1,-1,-1,-1,-1,-1,-1,-1,-1,-1,-1,-1,-1,-1,-1,-1,-1,-1,-1,-1,-1,-1,-1,-1,-1,-1,-1,-1,-1,-1,-1],"split_conditions":[1.093E1,1.077E1,1.111E1,8.9E0,1.086E1,1.1E1,1.123E1,1.1339092E0,1.034E1,1.082E1,7.3E-1,1.098E1,8E-1,1.117E1,6.877015E-1,9.12E0,1.062E1,7.1E-1,7.3E-1,7.2E-1,1.088E1,7.2E-1,7.6E-1,1.107E1,9.41993E-1,7.1E-1,7.2E-1,-7.9671776E-1,7.1E-1,-4.23243E-1,7.4E-1,1.078E1,1.081E1,1.084E1,7.6E-1,7E-1,1.09E1,7.4E-1,1.092E1,1.097E1,7.7E-1,7.5E-1,7.763815E-3,7.3E-1,7.8E-1,2.020672E-1,7.7E-1,8.7633365E-1,7.3E-1,-5.658465E-1,-4.4447228E-1,-3.3082235E-1,-2.4753806E-1,-8.012352E-2,-4.4645014E-1,-2.1826597E-1,-1.7062907E-1,-1.9730344E-1,-2.7236987E-2,-1.959117E-1,-9.975231E-2,-3.2415694E-1,2.474209E-2,-2.1855861E-1,-4.9551606E-2,-1.4177868E-2,-1.6682443E-1,-1.3111103E-2,6.256289E-2,1.6301177E-1,5.045075E-1,6.4506054E-2,-5.5765916E-2,1.426699E-1,3.60956E-1,4.3748656E-1,2.0766875E-1,3.1603706E-1,5.304856E-1,4.2303118E-1,5.235306E-1,1.866108E-1,5.2170444E-1],"split_indices":[0,0,0,0,0,0,0,0,0,0,1,0,1,0,0,0,0,1,1,1,0,1,1,0,0,1,1,0,1,0,1,0,0,0,1,1,0,1,0,0,1,1,0,1,1,0,1,0,1,0,0,0,0,0,0,0,0,0,0,0,0,0,0,0,0,0,0,0,0,0,0,0,0,0,0,0,0,0,0,0,0,0,0],"split_type":[0,0,0,0,0,0,0,0,0,0,0,0,0,0,0,0,0,0,0,0,0,0,0,0,0,0,0,0,0,0,0,0,0,0,0,0,0,0,0,0,0,0,0,0,0,0,0,0,0,0,0,0,0,0,0,0,0,0,0,0,0,0,0,0,0,0,0,0,0,0,0,0,0,0,0,0,0,0,0,0,0,0,0],"sum_hessian":[2.251E3,1.187E3,1.064E3,6.36E2,5.51E2,6.33E2,4.31E2,3E0,6.33E2,2.61E2,2.9E2,2.54E2,3.79E2,3.66E2,6.5E1,2.51E2,3.82E2,1.25E2,1.36E2,9.2E1,1.98E2,1.68E2,8.6E1,3.78E2,1E0,1.94E2,1.72E2,2.5E1,2.26E2,1.91E2,1.91E2,1.1E1,1.14E2,4.1E1,9.5E1,3.1E1,6.1E1,4.4E1,1.54E2,1.5E1,1.53E2,7.9E1,7E0,2.17E2,1.61E2,5E0,1.89E2,2E0,1.7E2,1.79E2,4.7E1,1.58E2,3.3E1,2E0,9E0,8.5E1,2.9E1,1.8E1,2.3E1,8.7E1,8E0,2E0,2.9E1,4.2E1,1.9E1,2E1,2.4E1,1.27E2,2.7E1,1.3E1,2E0,1.5E2,3E0,6.8E1,1.1E1,1.9E1,1.98E2,1.53E2,8E0,1.57E2,3.2E1,5E0,1.65E2],"tree_param":{"num_deleted":"0","num_feature":"3","num_nodes":"83","size_leaf_vector":"1"}},{"base_weights":[7.887209E-3,-6.863056E-1,7.82247E-1,-1.086221E0,-3.3276257E-1,4.717198E-1,1.1728657E0,8.7877923E-1,-1.113253E0,-5.1045084E-1,-1.2278958E-1,2.996805E-1,6.776942E-1,1.1365148E0,7.405745E-1,-1.4671681E0,-9.7700405E-1,-5.896095E-1,-3.8769802E-1,-2.725349E-1,-5.219106E-2,2.1847434E-1,5.5507344E-1,8.967173E-1,4.9381158E-1,1.0552028E0,1.4115585E0,-5.934964E-1,-4.1242E-1,-1.1051837E0,-8.563082E-1,-7.8791404E-1,-5.61617E-1,9.123908E-3,-4.1237786E-1,-2.2241741E-1,-3.996134E-1,-2.357137E-1,1.4264261E-3,4.1019607E-1,1.4564164E-1,2.2023432E-1,7.280229E-1,1.1942654E0,7.8223103E-1,3.9935973E-1,1.2539825E0,1.0912904E0,6.781522E-1,3.9534602E-1,5.3273803E-1,-1.9786644E-1,-3.4947574E-1,-2.664879E-1,-1.9459057E-1,-1.5553707E-1,-3.2590878E-1,-2.008786E-1,-1.404739E-1,3.3683816E-1,-1.4084E-1,-2.169336E-1,-1.1405676E-1,-8.570859E-2,1.1364823E-1,-3.8762074E-2,-2.1364704E-1,4.5994488E-3,-1.5819684E-1,-1.07894614E-1,1.3537814E-1,-5.666809E-3,5.308522E-2,1.2579152E-1,3.1160695E-2,1.8133579E-1,3.522647E-1,-1.2354661E-2,4.273732E-1,3.8174E-1,2.006193E-1,9.756868E-2,2.2859095E-1,2.9451522E-1,8.006939E-1,3.079547E-1,5.157829E-1,1.5766802E-1,2.4509126E-1],"categories":[],"categories_nodes":[],"categories_segments":[],"categories_sizes":[],"default_left":[0,0,0,0,0,0,0,0,0,0,0,0,0,0,0,0,0,0,0,0,0,0,0,0,0,0,0,0,0,0,0,0,0,0,0,0,0,0,0,0,0,0,0,0,0,0,0,0,0,0,0,0,0,0,0,0,0,0,0,0,0,0,0,0,0,0,0,0,0,0,0,0,0,0,0,0,0,0,0,0,0,0,0,0,0,0,0,0,0],"id":10,"left_children":[1,3,5,7,9,11,13,-1,15,17,19,21,23,25,-1,27,29,31,33,35,37,39,41,43,45,47,49,-1,-1,51,53,55,57,59,61,63,-1,65,67,69,71,73,75,77,79,81,83,85,87,-1,-1,-1,-1,-1,-1,-1,-1,-1,-1,-1,-1,-1,-1,-1,-1,-1,-1,-1,-1,-1,-1,-1,-1,-1,-1,-1,-1,-1,-1,-1,-1,-1,-1,-1,-1,-1,-1,-1,-1],"loss_changes":[1.2111107E3,1.6760663E2,1.286289E2,6.3721436E1,2.3517082E1,2.088115E1,1.9378723E1,0E0,2.5280762E1,3.0946045E0,3.0621696E0,6.639799E0,1.0431335E1,8.798096E0,0E0,4.4620667E0,5.28833E0,7.01004E-1,1.3454723E0,4.6420264E0,1.9585007E0,3.4171963E0,4.3566628E0,3.221756E0,1.0197342E1,4.1447754E0,1.142395E0,0E0,0E0,4.342682E0,8.32016E-1,1.2864075E0,1.5415497E0,5.324041E0,1.0153561E0,3.5323238E0,0E0,2.1914835E0,1.1476902E0,2.3119917E0,9.4088125E-1,6.050651E-1,2.1021862E0,9.163891E0,4.2124634E0,3.3541832E0,3.5438862E0,1.1496033E1,2.9084206E-1,0E0,0E0,0E0,0E0,0E0,0E0,0E0,0E0,0E0,0E0,0E0,0E0,0E0,0E0,0E0,0E0,0E0,0E0,0E0,0E0,0E0,0E0,0E0,0E0,0E0,0E0,0E0,0E0,0E0,0E0,0E0,0E0,0E0,0E0,0E0,0E0,0E0,0E0,0E0,0E0],"parents":[2147483647,0,0,1,1,2,2,3,3,4,4,5,5,6,6,8,8,9,9,10,10,11,11,12,12,13,13,15,15,16,16,17,17,18,18,19,19,20,20,21,21,22,22,23,23,24,24,25,25,26,26,29,29,30,30,31,31,32,32,33,33,34,34,35,35,37,37,38,38,39,39,40,40,41,41,42,42,43,43,44,44,45,45,46,46,47,47,48,48],"right_children":[2,4,6,8,10,12,14,-1,16,18,20,22,24,26,-1,28,30,32,34,36,38,40,42,44,46,48,50,-1,-1,52,54,56,58,60,62,64,-1,66,68,70,72,74,76,78,80,82,84,86,88,-1,-1,-1,-1,-1,-1,-1,-1,-1,-1,-1,-1,-1,-1,-1,-1,-1,-1,-1,-1,-1,-1,-1,-1,-1,-1,-1,-1,-1,-1,-1,-1,-1,-1,-1,-1,-1,-1,-1,-1],"split_conditions":[1.093E1,1.072E1,1.11E1,8.9E0,1.086E1,1.103E1,2.64E1,8.7877923E-1,1.006E1,1.082E1,7.3E-1,7.5E-1,7.5E-1,1.121E1,7.405745E-1,9.07E0,1.049E1,7.1E-1,7.1E-1,1.092E1,1.088E1,7.3E-1,1.098E1,7.3E-1,7.8E-1,1.119E1,1.127E1,-5.934964E-1,-4.1242E-1,1.015E1,7.4E-1,1.078E1,1.078E1,1.083E1,7.2E-1,1.091E1,-3.996134E-1,7.5E-1,7.7E-1,7.1E-1,1.094E1,1.094E1,7.7E-1,1.104E1,1.104E1,1.108E1,8E-1,1.118E1,1.12E1,3.9534602E-1,5.3273803E-1,-1.9786644E-1,-3.4947574E-1,-2.664879E-1,-1.9459057E-1,-1.5553707E-1,-3.2590878E-1,-2.008786E-1,-1.404739E-1,3.3683816E-1,-1.4084E-1,-2.169336E-1,-1.1405676E-1,-8.570859E-2,1.1364823E-1,-3.8762074E-2,-2.1364704E-1,4.5994488E-3,-1.5819684E-1,-1.07894614E-1,1.3537814E-1,-5.666809E-3,5.308522E-2,1.2579152E-1,3.1160695E-2,1.8133579E-1,3.522647E-1,-1.2354661E-2,4.273732E-1,3.8174E-1,2.006193E-1,9.756868E-2,2.2859095E-1,2.9451522E-1,8.006939E-1,3.079547E-1,5.157829E-1,1.5766802E-1,2.4509126E-1],"split_indices":[0,0,0,0,0,0,2,0,0,0,1,1,1,0,0,0,0,1,1,0,0,1,0,1,1,0,0,0,0,0,1,0,0,0,1,0,0,1,1,1,0,0,1,0,0,0,1,0,0,0,0,0,0,0,0,0,0,0,0,0,0,0,0,0,0,0,0,0,0,0,0,0,0,0,0,0,0,0,0,0,0,0,0,0,0,0,0,0,0],"split_type":[0,0,0,0,0,0,0,0,0,0,0,0,0,0,0,0,0,0,0,0,0,0,0,0,0,0,0,0,0,0,0,0,0,0,0,0,0,0,0,0,0,0,0,0,0,0,0,0,0,0,0,0,0,0,0,0,0,0,0,0,0,0,0,0,0,0,0,0,0,0,0,0,0,0,0,0,0,0,0,0,0,0,0,0,0,0,0,0,0],"sum_hessian":[2.251E3,1.187E3,1.064E3,5.56E2,6.31E2,5.94E2,4.7E2,3E0,5.53E2,3.41E2,2.9E2,3.25E2,2.69E2,4.59E2,1.1E1,1.51E2,4.02E2,2.05E2,1.36E2,9.2E1,1.98E2,2.48E2,7.7E1,1.21E2,1.48E2,3.58E2,1.01E2,2E1,1.31E2,1.91E2,2.11E2,2.2E1,1.83E2,8E0,1.28E2,8.9E1,3E0,4.4E1,1.54E2,6.7E1,1.81E2,2.7E1,5E1,3.1E1,9E1,1.33E2,1.5E1,3.25E2,3.3E1,8.4E1,1.7E1,2.4E1,1.67E2,1.8E2,3.1E1,1.3E1,9E0,8.2E1,1.01E2,2E0,6E0,1E1,1.18E2,8.1E1,8E0,3.7E1,7E0,1.51E2,3E0,3E0,6.4E1,2.9E1,1.52E2,9E0,1.8E1,4.1E1,9E0,5E0,2.6E1,1.5E1,7.5E1,1.12E2,2.1E1,1.4E1,1E0,2.97E2,2.8E1,1.8E1,1.5E1],"tree_param":{"num_deleted":"0","num_feature":"3","num_nodes":"89","size_leaf_vector":"1"}},{"base_weights":[6.9452077E-3,-5.3202033E-1,5.040568E-1,-7.902729E-1,-3.050714E-1,1.8510334E-1,7.3214346E-1,6.8105453E-1,-8.130847E-1,-4.242012E-1,-1.9211365E-1,6.301052E-2,3.01108E-1,5.5268776E-1,8.983409E-1,-1.0017369E0,-6.858784E-1,-4.7982848E-1,-3.7134558E-1,2.7102642E-2,-2.2425719E-1,7.568736E-2,-3.697597E-1,2.670013E-1,7.035161E-1,6.64424E-1,2.802494E-1,8.644377E-1,5.369156E-1,-4.4399744E-1,-9.521061E-1,-6.962082E-1,-3.1359482E-1,-3.5807514E-1,-5.30196E-1,-5.2016336E-1,-3.1886697E-1,-3.2366997E-1,4.1337225E-1,-2.0295003E-1,-3.4339502E-1,5.5518333E-2,3.2987326E-1,-7.040016E-1,3.1056342E-1,3.921249E-1,2.421456E-1,7.656358E-1,1.16999306E-1,6.119032E-1,9.553725E-1,2.3636265E-1,6.805893E-1,8.4571254E-1,1.9573746E0,-2.6942408E-1,-3.7793627E-1,-2.2417654E-1,-1.8967645E-1,-1.24125026E-1,-5.3359892E-2,-1.722812E-1,-5.6427408E-2,-8.7530136E-2,-1.7771217E-1,-9.7036675E-2,-1.9187394E-1,-6.3482754E-2,-1.0773749E-1,-5.405846E-2,-1.1943037E-1,-1.6610023E-1,2.124482E-1,-6.827732E-2,2.2078544E-2,9.2396006E-2,-1.4254612E-1,3.1890657E-2,-4.556677E-3,3.4503978E-1,4.3148957E-2,-3.0483553E-1,-4.71653E-2,2.1204759E-1,-7.229405E-2,2.0133539E-1,4.4280246E-2,3.529426E-2,8.994009E-2,3.137052E-1,1.2015508E-1,-1.2590677E-1,1.7855644E-1,2.2108704E-1,1.7164873E-1,2.0741911E-1,5.624379E-1,1.8634701E-2,1.1967376E-1,9.907766E-2,2.605883E-1,6.4973605E-1,1.685589E-1],"categories":[],"categories_nodes":[],"categories_segments":[],"categories_sizes":[],"default_left":[0,0,0,0,0,0,0,0,0,0,0,0,0,0,0,0,0,0,0,0,0,0,0,0,0,0,0,0,0,0,0,0,0,0,0,0,0,0,0,0,0,0,0,0,0,0,0,0,0,0,0,0,0,0,0,0,0,0,0,0,0,0,0,0,0,0,0,0,0,0,0,0,0,0,0,0,0,0,0,0,0,0,0,0,0,0,0,0,0,0,0,0,0,0,0,0,0,0,0,0,0,0,0],"id":11,"left_children":[1,3,5,7,9,11,13,-1,15,17,19,21,23,25,27,29,31,33,35,37,39,41,43,45,47,49,51,53,-1,-1,55,57,59,61,63,65,67,69,71,73,75,77,79,81,83,85,87,89,91,93,95,97,-1,99,101,-1,-1,-1,-1,-1,-1,-1,-1,-1,-1,-1,-1,-1,-1,-1,-1,-1,-1,-1,-1,-1,-1,-1,-1,-1,-1,-1,-1,-1,-1,-1,-1,-1,-1,-1,-1,-1,-1,-1,-1,-1,-1,-1,-1,-1,-1,-1,-1],"loss_changes":[6.036376E2,6.3116486E1,8.512634E1,3.7102203E1,7.682987E0,6.9210625E0,1.9874023E1,0E0,1.1359833E1,6.4507675E-1,2.1059017E0,1.3446646E0,3.2570896E0,9.889839E0,9.120758E0,3.3381195E0,9.468994E-1,6.2576103E-1,9.899807E-1,5.4180155E0,5.9031487E-1,1.1813294E0,1.8103848E0,6.2968826E-1,6.0267067E-1,2.9911118E0,8.01561E0,5.3438263E0,0E0,0E0,1.9272003E0,4.873352E-1,6.2346935E-2,1.4354734E0,1.1910667E0,6.622591E-1,4.0762043E-1,1.5252376E-1,5.8084555E0,1.5363522E0,3.4076977E0,7.844062E-1,2.4288416E0,6.9355035E-1,8.259978E-1,2.4251013E0,1.3787756E0,1.3194513E0,1.0197093E0,5.772629E-1,6.9557285E0,2.7226324E0,0E0,3.7054443E0,2.373333E-1,0E0,0E0,0E0,0E0,0E0,0E0,0E0,0E0,0E0,0E0,0E0,0E0,0E0,0E0,0E0,0E0,0E0,0E0,0E0,0E0,0E0,0E0,0E0,0E0,0E0,0E0,0E0,0E0,0E0,0E0,0E0,0E0,0E0,0E0,0E0,0E0,0E0,0E0,0E0,0E0,0E0,0E0,0E0,0E0,0E0,0E0,0E0,0E0],"parents":[2147483647,0,0,1,1,2,2,3,3,4,4,5,5,6,6,8,8,9,9,10,10,11,11,12,12,13,13,14,14,15,15,16,16,17,17,18,18,19,19,20,20,21,21,22,22,23,23,24,24,25,25,26,26,27,27,30,30,31,31,32,32,33,33,34,34,35,35,36,36,37,37,38,38,39,39,40,40,41,41,42,42,43,43,44,44,45,45,46,46,47,47,48,48,49,49,50,50,51,51,53,53,54,54],"right_children":[2,4,6,8,10,12,14,-1,16,18,20,22,24,26,28,30,32,34,36,38,40,42,44,46,48,50,52,54,-1,-1,56,58,60,62,64,66,68,70,72,74,76,78,80,82,84,86,88,90,92,94,96,98,-1,100,102,-1,-1,-1,-1,-1,-1,-1,-1,-1,-1,-1,-1,-1,-1,-1,-1,-1,-1,-1,-1,-1,-1,-1,-1,-1,-1,-1,-1,-1,-1,-1,-1,-1,-1,-1,-1,-1,-1,-1,-1,-1,-1,-1,-1,-1,-1,-1,-1],"split_conditions":[1.09E1,1.068E1,1.104E1,8.9E0,1.083E1,1.097E1,1.113E1,6.8105453E-1,1.022E1,1.077E1,7.2E-1,7.7E-1,7.7E-1,7.6E-1,2.64E1,9.04E0,7.6E-1,7.2E-1,7.2E-1,1.087E1,7.5E-1,7.6E-1,7.8E-1,7.3E-1,7.9E-1,1.112E1,8E-1,7.9E-1,5.369156E-1,-4.4399744E-1,1.015E1,1.052E1,1.028E1,1.07E1,1.07E1,1.079E1,7.3E-1,1.085E1,7.1E-1,1.089E1,1.084E1,7.4E-1,1.091E1,1.093E1,1.093E1,1.099E1,7.4E-1,1.103E1,1.103E1,7.3E-1,7.5E-1,7.7E-1,6.805893E-1,7.3E-1,1.118E1,-2.6942408E-1,-3.7793627E-1,-2.2417654E-1,-1.8967645E-1,-1.24125026E-1,-5.3359892E-2,-1.722812E-1,-5.6427408E-2,-8.7530136E-2,-1.7771217E-1,-9.7036675E-2,-1.9187394E-1,-6.3482754E-2,-1.0773749E-1,-5.405846E-2,-1.1943037E-1,-1.6610023E-1,2.124482E-1,-6.827732E-2,2.2078544E-2,9.2396006E-2,-1.4254612E-1,3.1890657E-2,-4.556677E-3,3.4503978E-1,4.3148957E-2,-3.0483553E-1,-4.71653E-2,2.1204759E-1,-7.229405E-2,2.0133539E-1,4.4280246E-2,3.529426E-2,8.994009E-2,3.137052E-1,1.2015508E-1,-1.2590677E-1,1.7855644E-1,2.2108704E-1,1.7164873E-1,2.0741911E-1,5.624379E-1,1.8634701E-2,1.1967376E-1,9.907766E-2,2.605883E-1,6.4973605E-1,1.685589E-1],"split_indices":[0,0,0,0,0,0,0,0,0,0,1,1,1,1,2,0,1,1,1,0,1,1,1,1,1,0,1,1,0,0,0,0,0,0,0,0,1,0,1,0,0,1,0,0,0,0,1,0,0,1,1,1,0,1,0,0,0,0,0,0,0,0,0,0,0,0,0,0,0,0,0,0,0,0,0,0,0,0,0,0,0,0,0,0,0,0,0,0,0,0,0,0,0,0,0,0,0,0,0,0,0,0,0],"split_type":[0,0,0,0,0,0,0,0,0,0,0,0,0,0,0,0,0,0,0,0,0,0,0,0,0,0,0,0,0,0,0,0,0,0,0,0,0,0,0,0,0,0,0,0,0,0,0,0,0,0,0,0,0,0,0,0,0,0,0,0,0,0,0,0,0,0,0,0,0,0,0,0,0,0,0,0,0,0,0,0,0,0,0,0,0,0,0,0,0,0,0,0,0,0,0,0,0,0,0,0,0,0,0],"sum_hessian":[2.251E3,1.08E3,1.171E3,5.04E2,5.76E2,4.89E2,6.82E2,3E0,5.01E2,2.79E2,2.97E2,2.39E2,2.5E2,3.3E2,3.52E2,1.99E2,3.02E2,1.32E2,1.47E2,3.8E1,2.59E2,2.33E2,6E0,2.32E2,1.8E1,2.33E2,9.7E1,3.41E2,1.1E1,1.6E1,1.83E2,2.93E2,9E0,4.1E1,9.1E1,3.6E1,1.11E2,2E1,1.8E1,2.22E2,3.7E1,2.17E2,1.6E1,4E0,2E0,3.6E1,1.96E2,1.6E1,2E0,2E2,3.3E1,9.6E1,1E0,3.37E2,4E0,1.59E2,2.4E1,1.57E2,1.36E2,4E0,5E0,1.7E1,2.4E1,2E1,7.1E1,1.5E1,2.1E1,3.2E1,7.9E1,8E0,1.2E1,4E0,1.4E1,2.04E2,1.8E1,6E0,3.1E1,1.26E2,9.1E1,2E0,1.4E1,2E0,2E0,1E0,1E0,1.6E1,2E1,6.3E1,1.33E2,8E0,8E0,1E0,1E0,4.4E1,1.56E2,2.7E1,6E0,4.7E1,4.9E1,1.5E1,3.22E2,3E0,1E0],"tree_param":{"num_deleted":"0","num_feature":"3","num_nodes":"103","size_leaf_vector":"1"}},{"base_weights":[6.0062255E-3,-3.4110495E-1,3.9320064E-1,-5.2492034E-1,-1.5578438E-1,2.5146148E-1,6.0030586E-1,5.2781755E-1,-5.394437E-1,-2.4415359E-1,-6.323575E-2,1.5269463E-1,3.5484827E-1,5.790062E-1,1.2975432E0,-7.714976E-1,-4.713252E-1,1.328152E-1,-2.5880933E-1,-1.9158825E-1,-2.934154E-3,1.0383577E-1,3.0670953E-1,3.434787E-1,5.7850116E-1,5.576334E-1,3.079619E-1,6.25026E-1,3.1100944E-1,-2.8965136E-1,-6.951164E-1,-5.169691E-1,-3.7419555E-1,2.694182E-1,-2.0547266E-1,-5.816476E-1,-2.4168192E-1,-1.5102993E-1,-1.0562534E0,3.890794E-2,-1.1893139E-1,3.571776E-1,7.647277E-2,3.2955897E-1,-1.1231385E-1,4.7616678E-1,2.2406867E-1,5.225408E-1,7.070659E-1,-1.8928592E-1,-2.902486E-1,-1.48254E-1,-2.1645983E-1,-7.243143E-2,-1.259583E-1,-1.8758126E-2,1.404101E-1,8.65202E-3,-1.8924801E-1,-8.492131E-2,-5.9014823E-2,-5.7943296E-2,7.4838005E-2,-8.368035E-2,-3.6671448E-1,2.3399093E-3,8.793576E-2,-2.2042467E-1,-2.0186212E-2,-1.04431346E-1,1.4235257E-1,-2.2259392E-2,3.190852E-2,4.3114513E-2,1.2699705E-1,2.1177866E-2,1.6102935E-1,4.497634E-2,1.3736309E-1,1.3847527E-1,1.9035698E-1,2.6320812E-1,1.753006E-1],"categories":[],"categories_nodes":[],"categories_segments":[],"categories_sizes":[],"default_left":[0,0,0,0,0,0,0,0,0,0,0,0,0,0,0,0,0,0,0,0,0,0,0,0,0,0,0,0,0,0,0,0,0,0,0,0,0,0,0,0,0,0,0,0,0,0,0,0,0,0,0,0,0,0,0,0,0,0,0,0,0,0,0,0,0,0,0,0,0,0,0,0,0,0,0,0,0,0,0,0,0,0,0],"id":12,"left_children":[1,3,5,7,9,11,13,-1,15,17,19,21,23,25,27,29,31,33,35,37,39,41,43,45,-1,47,-1,-1,-1,-1,49,51,53,55,-1,57,59,61,63,65,67,69,71,73,-1,75,77,79,81,-1,-1,-1,-1,-1,-1,-1,-1,-1,-1,-1,-1,-1,-1,-1,-1,-1,-1,-1,-1,-1,-1,-1,-1,-1,-1,-1,-1,-1,-1,-1,-1,-1,-1],"loss_changes":[3.0280182E2,4.0387177E1,3.111203E1,2.0721863E1,4.834381E0,6.419712E0,5.6643066E0,0E0,9.010025E0,1.708374E0,2.251737E0,2.4212995E0,4.865631E0,3.4544525E0,3.0002785E-1,1.2997284E0,1.8503342E0,1.5249696E0,1.4740067E0,3.1019256E0,9.704873E-1,1.698802E0,1.337256E0,4.773346E0,0E0,1.7490845E0,0E0,0E0,0E0,0E0,1.119751E0,1.0932541E0,8.140545E-1,7.544889E-1,0E0,4.3851757E-1,4.635601E-1,1.5661566E0,1.7557383E-1,1.1601994E0,1.6361349E0,2.151213E0,1.0256585E0,1.263505E0,0E0,3.525753E0,2.7745094E0,1.9665451E0,1.0339546E0,0E0,0E0,0E0,0E0,0E0,0E0,0E0,0E0,0E0,0E0,0E0,0E0,0E0,0E0,0E0,0E0,0E0,0E0,0E0,0E0,0E0,0E0,0E0,0E0,0E0,0E0,0E0,0E0,0E0,0E0,0E0,0E0,0E0,0E0],"parents":[2147483647,0,0,1,1,2,2,3,3,4,4,5,5,6,6,8,8,9,9,10,10,11,11,12,12,13,13,14,14,15,15,16,16,17,17,18,18,19,19,20,20,21,21,22,22,23,23,25,25,30,30,31,31,32,32,33,33,35,35,36,36,37,37,38,38,39,39,40,40,41,41,42,42,43,43,45,45,46,46,47,47,48,48],"right_children":[2,4,6,8,10,12,14,-1,16,18,20,22,24,26,28,30,32,34,36,38,40,42,44,46,-1,48,-1,-1,-1,-1,50,52,54,56,-1,58,60,62,64,66,68,70,72,74,-1,76,78,80,82,-1,-1,-1,-1,-1,-1,-1,-1,-1,-1,-1,-1,-1,-1,-1,-1,-1,-1,-1,-1,-1,-1,-1,-1,-1,-1,-1,-1,-1,-1,-1,-1,-1,-1],"split_conditions":[1.093E1,1.074E1,1.111E1,8.9E0,1.086E1,1.103E1,2.64E1,5.2781755E-1,9.99E0,1.075E1,7.3E-1,7.5E-1,8E-1,1.127E1,1.121E1,9.2E0,1.062E1,7.5E-1,1.076E1,1.092E1,7.5E-1,7.2E-1,7.8E-1,7.5E-1,5.7850116E-1,7.7E-1,3.079619E-1,6.25026E-1,3.1100944E-1,-2.8965136E-1,9.91E0,1.058E1,1.066E1,7.1E-1,-2.0547266E-1,7.1E-1,1.082E1,1.091E1,7.2E-1,1.092E1,1.087E1,7.1E-1,1.094E1,1.098E1,-1.1231385E-1,7.2E-1,1.108E1,1.118E1,1.116E1,-1.8928592E-1,-2.902486E-1,-1.48254E-1,-2.1645983E-1,-7.243143E-2,-1.259583E-1,-1.8758126E-2,1.404101E-1,8.65202E-3,-1.8924801E-1,-8.492131E-2,-5.9014823E-2,-5.7943296E-2,7.4838005E-2,-8.368035E-2,-3.6671448E-1,2.3399093E-3,8.793576E-2,-2.2042467E-1,-2.0186212E-2,-1.04431346E-1,1.4235257E-1,-2.2259392E-2,3.190852E-2,4.3114513E-2,1.2699705E-1,2.1177866E-2,1.6102935E-1,4.497634E-2,1.3736309E-1,1.3847527E-1,1.9035698E-1,2.6320812E-1,1.753006E-1],"split_indices":[0,0,0,0,0,0,2,0,0,0,1,1,1,0,0,0,0,1,0,0,1,1,1,1,0,1,0,0,0,0,0,0,0,1,0,1,0,0,1,0,0,1,0,0,0,1,0,0,0,0,0,0,0,0,0,0,0,0,0,0,0,0,0,0,0,0,0,0,0,0,0,0,0,0,0,0,0,0,0,0,0,0,0],"split_type":[0,0,0,0,0,0,0,0,0,0,0,0,0,0,0,0,0,0,0,0,0,0,0,0,0,0,0,0,0,0,0,0,0,0,0,0,0,0,0,0,0,0,0,0,0,0,0,0,0,0,0,0,0,0,0,0,0,0,0,0,0,0,0,0,0,0,0,0,0,0,0,0,0,0,0,0,0,0,0,0,0,0,0],"sum_hessian":[2.251E3,1.187E3,1.064E3,5.95E2,5.92E2,6.33E2,4.31E2,3E0,5.92E2,3.02E2,2.9E2,3.25E2,3.08E2,4.2E2,1.1E1,1.32E2,4.6E2,1.1E1,2.91E2,9.2E1,1.98E2,2.48E2,7.7E1,3.07E2,1E0,4.03E2,1.7E1,1E0,1E1,3.4E1,9.8E1,3.1E2,1.5E2,1E1,1E0,1.3E1,2.78E2,8.9E1,3E0,1.46E2,5.2E1,2.3E1,2.25E2,7.5E1,2E0,1.44E2,1.63E2,3.3E2,7.3E1,8.2E1,1.6E1,2.82E2,2.8E1,4E1,1.1E2,4E0,6E0,1E0,1.2E1,1.42E2,1.36E2,8.1E1,8E0,1E0,2E0,1.31E2,1.5E1,3E0,4.9E1,3E0,2E1,3.7E1,1.88E2,2.6E1,4.9E1,1.9E1,1.25E2,1.25E2,3.8E1,2.17E2,1.13E2,2.8E1,4.5E1],"tree_param":{"num_deleted":"0","num_feature":"3","num_nodes":"83","size_leaf_vector":"1"}},{"base_weights":[4.76575E-3,-2.4028586E-1,2.7811462E-1,-3.9361188E-1,-1.2673335E-1,1.907063E-1,4.5387673E-1,4.0905878E-1,-4.068289E-1,-2.0013793E-1,-6.011328E-2,1.18671484E-1,2.734816E-1,4.3961716E-1,1.3584198E0,-5.7465976E-1,-3.6259538E-1,-2.1078129E-1,1.9698249E-1,-6.3684046E-2,1.8326855E-1,1.0408086E-1,3.533594E-1,3.4503862E-1,9.9830315E-2,4.1890833E-1,9.862811E-1,4.5091727E-1,1.1698037E-1,-2.6177534E-1,-5.295537E-1,-3.499112E-1,-5.860993E-1,-3.2922703E-1,-1.9679163E-1,-6.315384E-2,1.253167E-1,-5.7322867E-2,-2.3983078E-1,-8.093434E-2,1.07956536E-1,-5.7067968E-2,4.492007E-1,3.0746755E-1,5.5700165E-1,6.7063875E-2,4.917263E-1,3.9983997E-1,7.356881E-1,5.3127253E-1,2.261879E-1,-1.4764588E-1,-1.9420466E-1,-1.0982234E-1,-1.6618429E-2,-2.6201427E-1,-1.09267846E-1,-1.4113541E-1,2.5185587E-2,-4.7788553E-2,-6.6767044E-2,-6.2464144E-2,7.5493813E-3,-1.4371148E-1,-1.571874E-2,9.028385E-2,2.8522708E-2,2.8690797E-1,1.1036822E-1,1.3578145E-1,7.953109E-2,1.0735695E-1,3.8220325E-1,6.03867E-2,-5.2937232E-2,2.9190356E-1,1.1686142E-1,1.7390338E-1,2.853287E-1],"categories":[],"categories_nodes":[],"categories_segments":[],"categories_sizes":[],"default_left":[0,0,0,0,0,0,0,0,0,0,0,0,0,0,0,0,0,0,0,0,0,0,0,0,0,0,0,0,0,0,0,0,0,0,0,0,0,0,0,0,0,0,0,0,0,0,0,0,0,0,0,0,0,0,0,0,0,0,0,0,0,0,0,0,0,0,0,0,0,0,0,0,0,0,0,0,0,0,0],"id":13,"left_children":[1,3,5,7,9,11,13,-1,15,17,19,21,23,25,27,29,31,33,35,37,-1,39,41,43,45,47,49,-1,-1,-1,51,53,55,57,59,61,-1,63,-1,-1,65,-1,67,69,71,73,-1,75,77,-1,-1,-1,-1,-1,-1,-1,-1,-1,-1,-1,-1,-1,-1,-1,-1,-1,-1,-1,-1,-1,-1,-1,-1,-1,-1,-1,-1,-1,-1],"loss_changes":[1.509161E2,2.0633858E1,1.6275124E1,1.2282944E1,3.332878E0,4.218954E0,3.9559555E0,0E0,3.5183487E0,1.4151964E0,9.014684E-1,1.2747068E0,4.0785484E0,3.5377731E0,1.14302635E-1,9.220543E-1,9.289055E-1,4.604864E-1,5.4318285E-1,1.6343827E0,0E0,5.536506E-1,1.2316058E0,1.6922417E0,4.8328032E0,1.7475243E0,8.522358E-1,0E0,0E0,0E0,8.672333E-2,1.7934113E0,9.566941E-1,1.9067249E0,2.4085236E-1,6.929696E-2,0E0,7.1668315E-1,0E0,0E0,8.6381483E-1,0E0,4.3163323E-1,1.115879E0,4.3989105E0,3.2061262E0,0E0,1.5164032E0,5.3574562E-2,0E0,0E0,0E0,0E0,0E0,0E0,0E0,0E0,0E0,0E0,0E0,0E0,0E0,0E0,0E0,0E0,0E0,0E0,0E0,0E0,0E0,0E0,0E0,0E0,0E0,0E0,0E0,0E0,0E0,0E0],"parents":[2147483647,0,0,1,1,2,2,3,3,4,4,5,5,6,6,8,8,9,9,10,10,11,11,12,12,13,13,14,14,15,15,16,16,17,17,18,18,19,19,21,21,22,22,23,23,24,24,25,25,26,26,30,30,31,31,32,32,33,33,34,34,35,35,37,37,40,40,42,42,43,43,44,44,45,45,47,47,48,48],"right_children":[2,4,6,8,10,12,14,-1,16,18,20,22,24,26,28,30,32,34,36,38,-1,40,42,44,46,48,50,-1,-1,-1,52,54,56,58,60,62,-1,64,-1,-1,66,-1,68,70,72,74,-1,76,78,-1,-1,-1,-1,-1,-1,-1,-1,-1,-1,-1,-1,-1,-1,-1,-1,-1,-1,-1,-1,-1,-1,-1,-1,-1,-1,-1,-1,-1,-1],"split_conditions":[1.093E1,1.068E1,1.113E1,8.9E0,1.084E1,1.104E1,7.9E-1,4.0905878E-1,9.81E0,7.6E-1,7.8E-1,7.7E-1,7.6E-1,2.64E1,1.118E1,8.99E0,1.066E1,7.1E-1,1.082E1,7.7E-1,1.8326855E-1,7.1E-1,1.094E1,1.112E1,8E-1,1.127E1,1.121E1,4.5091727E-1,1.1698037E-1,-2.6177534E-1,9.66E0,1.064E1,1.067E1,1.079E1,7.3E-1,1.073E1,1.253167E-1,7E-1,-2.3983078E-1,-8.093434E-2,7.2E-1,-5.7067968E-2,1.101E1,1.106E1,7.5E-1,1.109E1,4.917263E-1,7.2E-1,7.7E-1,5.3127253E-1,2.261879E-1,-1.4764588E-1,-1.9420466E-1,-1.0982234E-1,-1.6618429E-2,-2.6201427E-1,-1.09267846E-1,-1.4113541E-1,2.5185587E-2,-4.7788553E-2,-6.6767044E-2,-6.2464144E-2,7.5493813E-3,-1.4371148E-1,-1.571874E-2,9.028385E-2,2.8522708E-2,2.8690797E-1,1.1036822E-1,1.3578145E-1,7.953109E-2,1.0735695E-1,3.8220325E-1,6.03867E-2,-5.2937232E-2,2.9190356E-1,1.1686142E-1,1.7390338E-1,2.853287E-1],"split_indices":[0,0,0,0,0,0,1,0,0,1,1,1,1,2,0,0,0,1,0,1,0,1,0,0,1,0,0,0,0,0,0,0,0,0,1,0,0,1,0,0,1,0,0,0,1,0,0,1,1,0,0,0,0,0,0,0,0,0,0,0,0,0,0,0,0,0,0,0,0,0,0,0,0,0,0,0,0,0,0],"split_type":[0,0,0,0,0,0,0,0,0,0,0,0,0,0,0,0,0,0,0,0,0,0,0,0,0,0,0,0,0,0,0,0,0,0,0,0,0,0,0,0,0,0,0,0,0,0,0,0,0,0,0,0,0,0,0,0,0,0,0,0,0,0,0,0,0,0,0,0,0,0,0,0,0,0,0,0,0,0,0],"sum_hessian":[2.251E3,1.187E3,1.064E3,5.04E2,6.83E2,7.12E2,3.52E2,3E0,5.01E2,3.24E2,3.59E2,3.82E2,3.3E2,3.48E2,4E0,1.02E2,3.99E2,3.16E2,8E0,3.58E2,1E0,3.61E2,2.1E1,2.33E2,9.7E1,3.37E2,1.1E1,3E0,1E0,1.1E1,9.1E1,3.8E2,1.9E1,3.1E1,2.85E2,4E0,4E0,3.56E2,2E0,3E0,3.58E2,3E0,1.8E1,2E2,3.3E1,9.6E1,1E0,3.2E2,1.7E1,1E0,1E1,7.3E1,1.8E1,3.6E2,2E1,7E0,1.2E1,2.3E1,8E0,1.19E2,1.66E2,1E0,3E0,3E0,3.53E2,2.1E1,3.37E2,1E0,1.7E1,4.3E1,1.57E2,2.7E1,6E0,6.2E1,3.4E1,4E0,3.16E2,1.2E1,5E0],"tree_param":{"num_deleted":"0","num_feature":"3","num_nodes":"79","size_leaf_vector":"1"}},{"base_weights":[4.5388453E-3,-1.873421E-1,1.8151732E-1,-3.0457142E-1,-1.2690786E-1,7.854913E-2,2.7181864E-1,3.170208E-1,-3.1869408E-1,1.8966433E-1,-1.3350083E-1,2.6012393E-2,1.3118267E-1,2.3618978E-1,4.3084657E-1,-5.0380725E-1,-2.968408E-1,2.9705858E-1,6.175532E-2,-2.0186675E-1,-8.994495E-2,3.203426E-2,-2.0997564E-1,4.2144507E-1,8.968847E-2,2.0242378E-1,4.1078678E-1,-1.0384369E-2,4.6912986E-1,-2.022178E-1,-1.3007933E-1,-2.7144507E-1,-4.5458955E-1,1.5702517E-1,-1.0197277E-1,-2.2522911E-1,-7.568832E-2,-7.691284E-2,-1.9450635E-1,1.7435465E-2,1.9580998E-1,-4.536125E-1,2.6607767E-1,1.5372825E-1,9.409828E-1,1.18056215E-1,-1.8521013E-3,2.2436875E-1,-1.0951575E-1,4.73446E-1,2.2946765E-1,-3.2114327E-1,4.1796687E-1,4.1777083E-1,6.913024E-1,-8.9360274E-2,1.4548808E-1,-2.0059325E-1,-6.30426E-2,5.097771E-3,7.6386295E-2,-5.3977698E-2,-1.1168281E-1,-4.5344975E-2,7.037036E-2,-2.6767915E-2,3.6070682E-2,-7.858909E-3,-8.1774905E-2,-5.8061946E-3,9.1610765E-3,2.8321344E-1,2.2135276E-2,-1.9186479E-1,-3.4941483E-2,1.5577812E-1,-3.6043167E-2,9.153583E-2,-4.8908826E-2,2.774219E-2,1.0060526E-1,3.333021E-2,-8.42409E-2,5.796512E-2,2.1247666E-1,-4.6915803E-3,-1.20697245E-1,1.8613382E-1,9.762962E-2,5.119324E-3,1.02483526E-1,4.7113497E-2,-2.2053085E-1,1.16286695E-1,4.515816E-1,2.2047882E-1,1.0646267E-1],"categories":[],"categories_nodes":[],"categories_segments":[],"categories_sizes":[],"default_left":[0,0,0,0,0,0,0,0,0,0,0,0,0,0,0,0,0,0,0,0,0,0,0,0,0,0,0,0,0,0,0,0,0,0,0,0,0,0,0,0,0,0,0,0,0,0,0,0,0,0,0,0,0,0,0,0,0,0,0,0,0,0,0,0,0,0,0,0,0,0,0,0,0,0,0,0,0,0,0,0,0,0,0,0,0,0,0,0,0,0,0,0,0,0,0,0,0],"id":14,"left_children":[1,3,5,7,9,11,13,-1,15,17,19,21,23,25,27,29,31,-1,33,35,37,39,41,43,45,47,49,51,53,-1,-1,55,57,59,-1,61,63,65,67,69,71,73,75,77,-1,79,81,83,85,87,89,91,-1,93,95,-1,-1,-1,-1,-1,-1,-1,-1,-1,-1,-1,-1,-1,-1,-1,-1,-1,-1,-1,-1,-1,-1,-1,-1,-1,-1,-1,-1,-1,-1,-1,-1,-1,-1,-1,-1,-1,-1,-1,-1,-1,-1],"loss_changes":[7.6509224E1,7.619869E0,1.0876095E1,7.3924675E0,1.5176334E0,1.5146794E0,3.4338112E0,0E0,1.3229485E0,1.4747771E0,2.0692377E0,3.9894682E-1,3.2623138E0,2.9353123E0,1.9136391E0,1.5000248E-1,1.1906204E0,0E0,5.891057E-1,7.847614E-1,5.709822E-1,6.421366E-1,9.325851E-1,2.4232248E1,6.2604725E-1,2.9749832E0,8.229866E-1,4.8092585E0,8.978939E-1,0E0,0E0,5.840498E0,2.1617947E0,1.5967247E-1,0E0,1.4585562E0,1.0656016E0,9.4292474E-1,6.104901E-1,1.2060785E-1,1.9390299E0,2.38945E-1,3.5573983E-1,1.5842816E0,0E0,9.918239E-1,1.8586779E0,5.937935E0,7.9086065E-1,1.1035709E0,5.420252E-1,1.8969996E0,0E0,2.2689524E0,3.3826828E-3,0E0,0E0,0E0,0E0,0E0,0E0,0E0,0E0,0E0,0E0,0E0,0E0,0E0,0E0,0E0,0E0,0E0,0E0,0E0,0E0,0E0,0E0,0E0,0E0,0E0,0E0,0E0,0E0,0E0,0E0,0E0,0E0,0E0,0E0,0E0,0E0,0E0,0E0,0E0,0E0,0E0,0E0],"parents":[2147483647,0,0,1,1,2,2,3,3,4,4,5,5,6,6,8,8,9,9,10,10,11,11,12,12,13,13,14,14,15,15,16,16,18,18,19,19,20,20,21,21,22,22,23,23,24,24,25,25,26,26,27,27,28,28,31,31,32,32,33,33,35,35,36,36,37,37,38,38,39,39,40,40,41,41,42,42,43,43,45,45,46,46,47,47,48,48,49,49,50,50,51,51,53,53,54,54],"right_children":[2,4,6,8,10,12,14,-1,16,18,20,22,24,26,28,30,32,-1,34,36,38,40,42,44,46,48,50,52,54,-1,-1,56,58,60,-1,62,64,66,68,70,72,74,76,78,-1,80,82,84,86,88,90,92,-1,94,96,-1,-1,-1,-1,-1,-1,-1,-1,-1,-1,-1,-1,-1,-1,-1,-1,-1,-1,-1,-1,-1,-1,-1,-1,-1,-1,-1,-1,-1,-1,-1,-1,-1,-1,-1,-1,-1,-1,-1,-1,-1,-1],"split_conditions":[1.09E1,1.052E1,1.106E1,8.9E0,1.054E1,1.098E1,7.7E-1,3.170208E-1,9.22E0,7.1E-1,1.078E1,7.7E-1,7.3E-1,1.121E1,1.107E1,8.97E0,1.045E1,2.9705858E-1,7.4E-1,7.4E-1,7.5E-1,7.6E-1,7.8E-1,1.104E1,1.104E1,1.119E1,7.6E-1,8E-1,1.123E1,-2.022178E-1,-1.3007933E-1,1.044E1,1.049E1,1.053E1,-1.0197277E-1,7.3E-1,1.076E1,1.089E1,1.084E1,7.3E-1,1.091E1,1.093E1,1.093E1,1.102E1,9.409828E-1,7.7E-1,7.6E-1,1.118E1,7.6E-1,1.124E1,1.123E1,7.8E-1,4.1796687E-1,2.64E1,2.64E1,-8.9360274E-2,1.4548808E-1,-2.0059325E-1,-6.30426E-2,5.097771E-3,7.6386295E-2,-5.3977698E-2,-1.1168281E-1,-4.5344975E-2,7.037036E-2,-2.6767915E-2,3.6070682E-2,-7.858909E-3,-8.1774905E-2,-5.8061946E-3,9.1610765E-3,2.8321344E-1,2.2135276E-2,-1.9186479E-1,-3.4941483E-2,1.5577812E-1,-3.6043167E-2,9.153583E-2,-4.8908826E-2,2.774219E-2,1.0060526E-1,3.333021E-2,-8.42409E-2,5.796512E-2,2.1247666E-1,-4.6915803E-3,-1.20697245E-1,1.8613382E-1,9.762962E-2,5.119324E-3,1.02483526E-1,4.7113497E-2,-2.2053085E-1,1.16286695E-1,4.515816E-1,2.2047882E-1,1.0646267E-1],"split_indices":[0,0,0,0,0,0,1,0,0,1,0,1,1,0,0,0,0,0,1,1,1,1,1,0,0,0,1,1,0,0,0,0,0,0,0,1,0,0,0,1,0,0,0,0,0,1,1,0,1,0,0,1,0,2,2,0,0,0,0,0,0,0,0,0,0,0,0,0,0,0,0,0,0,0,0,0,0,0,0,0,0,0,0,0,0,0,0,0,0,0,0,0,0,0,0,0,0],"split_type":[0,0,0,0,0,0,0,0,0,0,0,0,0,0,0,0,0,0,0,0,0,0,0,0,0,0,0,0,0,0,0,0,0,0,0,0,0,0,0,0,0,0,0,0,0,0,0,0,0,0,0,0,0,0,0,0,0,0,0,0,0,0,0,0,0,0,0,0,0,0,0,0,0,0,0,0,0,0,0,0,0,0,0,0,0,0,0,0,0,0,0,0,0,0,0,0,0],"sum_hessian":[2.251E3,1.08E3,1.171E3,3.66E2,7.14E2,5.48E2,6.23E2,3E0,3.63E2,1.4E1,7E2,2.75E2,2.73E2,5.11E2,1.12E2,3.6E1,3.27E2,1E0,1.3E1,2.71E2,4.29E2,2.69E2,6E0,3.3E1,2.4E2,4.3E2,8.1E1,9E0,1.03E2,8E0,2.8E1,2.84E2,4.3E1,1.1E1,2E0,2.28E2,4.3E1,3.83E2,4.6E1,2.48E2,2.1E1,4E0,2E0,3.1E1,2E0,1.83E2,5.7E1,4.02E2,2.8E1,5.9E1,2.2E1,8E0,1E0,8.6E1,1.7E1,2.75E2,9E0,2.2E1,2.1E1,5E0,6E0,1.76E2,5.2E1,3.5E1,8E0,3.61E2,2.2E1,1.5E1,3.1E1,6.5E1,1.83E2,2E0,1.9E1,2E0,2E0,1E0,1E0,2.1E1,1E1,1.65E2,1.8E1,4.1E1,1.6E1,3.79E2,2.3E1,2.2E1,6E0,2.8E1,3.1E1,8E0,1.4E1,4E0,4E0,8.5E1,1E0,1.4E1,3E0],"tree_param":{"num_deleted":"0","num_feature":"3","num_nodes":"97","size_leaf_vector":"1"}},{"base_weights":[4.4070254E-3,-1.1233368E-1,1.512058E-1,-1.9720285E-1,-5.5114947E-2,1.1588335E-1,2.6351327E-1,2.4569036E-1,-2.0490699E-1,-8.716149E-2,-3.000811E-3,1.1291941E-1,3.5527155E-1,4.8057023E-1,2.4538328E-1,-2.7299696E-1,-1.6149482E-1,-7.792891E-2,-1.833094E-1,-1.6327973E-1,2.707244E-3,6.5150216E-2,1.3734034E-1,2.2372088E-1,6.3110477E-1,-2.2539997E-1,-6.99527E-1,-1.4643526E-1,-3.7178382E-1,-1.0050665E-1,-2.275766E-2,1.8742333E-1,-2.2004783E-1,2.2449784E-1,-1.8547438E-2,2.6703667E-2,1.7717263E-1,1.3087699E-1,5.20092E-1,3.6487857E-1,1.6409507E-1,3.8384402E-1,1.3675357E-1,-8.1573375E-2,9.9667184E-2,-2.4362865E-1,-9.608389E-2,-4.697928E-2,3.7666358E-2,-1.7690235E-1,-6.272956E-2,-1.364006E-2,-3.7780665E-2,2.0722851E-2,-2.5470367E-2,-1.6289672E-1,-4.6975862E-2,1.4832966E-1,-3.2740116E-2,-6.0237985E-2,9.664882E-3,3.917665E-2,-3.082331E-3,5.7717822E-2,-1.2182007E-1,-5.7684327E-3,4.207787E-2,5.413208E-2,3.0780947E-1,1.2936623E-1,-1.4927903E-2,2.7328277E-2,1.0634443E-1],"categories":[],"categories_nodes":[],"categories_segments":[],"categories_sizes":[],"default_left":[0,0,0,0,0,0,0,0,0,0,0,0,0,0,0,0,0,0,0,0,0,0,0,0,0,0,0,0,0,0,0,0,0,0,0,0,0,0,0,0,0,0,0,0,0,0,0,0,0,0,0,0,0,0,0,0,0,0,0,0,0,0,0,0,0,0,0,0,0,0,0,0,0],"id":15,"left_children":[1,3,5,7,9,11,13,-1,15,17,19,21,-1,-1,23,25,27,29,31,-1,33,35,37,39,41,43,45,47,49,51,53,-1,55,57,59,61,63,65,67,69,71,-1,-1,-1,-1,-1,-1,-1,-1,-1,-1,-1,-1,-1,-1,-1,-1,-1,-1,-1,-1,-1,-1,-1,-1,-1,-1,-1,-1,-1,-1,-1,-1],"loss_changes":[3.861039E1,6.0835457E0,3.928505E0,4.121317E0,1.2539668E0,2.2760124E0,5.381975E0,0E0,1.4397907E0,3.9849234E-1,8.8818E-1,8.776436E-1,0E0,0E0,1.8307438E0,3.7808247E0,9.2411804E-1,5.283563E-1,1.3249385E0,0E0,1.347679E0,1.1107495E0,1.1738071E0,1.8338699E0,7.803621E-1,4.655035E0,5.5103683E-1,8.2123613E-1,5.856519E-1,4.1695356E-1,7.192248E-1,0E0,7.142559E-1,2.3054247E0,2.4211037E0,7.465881E-1,6.640036E-1,6.9984055E-1,1.1896083E0,1.8369856E0,2.1914463E0,0E0,0E0,0E0,0E0,0E0,0E0,0E0,0E0,0E0,0E0,0E0,0E0,0E0,0E0,0E0,0E0,0E0,0E0,0E0,0E0,0E0,0E0,0E0,0E0,0E0,0E0,0E0,0E0,0E0,0E0,0E0,0E0],"parents":[2147483647,0,0,1,1,2,2,3,3,4,4,5,5,6,6,8,8,9,9,10,10,11,11,14,14,15,15,16,16,17,17,18,18,20,20,21,21,22,22,23,23,24,24,25,25,26,26,27,27,28,28,29,29,30,30,32,32,33,33,34,34,35,35,36,36,37,37,38,38,39,39,40,40],"right_children":[2,4,6,8,10,12,14,-1,16,18,20,22,-1,-1,24,26,28,30,32,-1,34,36,38,40,42,44,46,48,50,52,54,-1,56,58,60,62,64,66,68,70,72,-1,-1,-1,-1,-1,-1,-1,-1,-1,-1,-1,-1,-1,-1,-1,-1,-1,-1,-1,-1,-1,-1,-1,-1,-1,-1,-1,-1,-1,-1,-1,-1],"split_conditions":[1.095E1,1.068E1,1.117E1,8.9E0,1.088E1,8E-1,7.2E-1,2.4569036E-1,1.02E1,7.5E-1,7E-1,1.103E1,3.5527155E-1,4.8057023E-1,2.64E1,1.015E1,1.066E1,1.084E1,1.069E1,-1.6327973E-1,7.2E-1,7.5E-1,7.9E-1,7.5E-1,1.121E1,1.011E1,1.019E1,1.065E1,1.067E1,1.075E1,7.3E-1,1.8742333E-1,1.075E1,1.09E1,7.3E-1,7.3E-1,7.8E-1,7.2E-1,1.113E1,1.124E1,1.123E1,3.8384402E-1,1.3675357E-1,-8.1573375E-2,9.9667184E-2,-2.4362865E-1,-9.608389E-2,-4.697928E-2,3.7666358E-2,-1.7690235E-1,-6.272956E-2,-1.364006E-2,-3.7780665E-2,2.0722851E-2,-2.5470367E-2,-1.6289672E-1,-4.6975862E-2,1.4832966E-1,-3.2740116E-2,-6.0237985E-2,9.664882E-3,3.917665E-2,-3.082331E-3,5.7717822E-2,-1.2182007E-1,-5.7684327E-3,4.207787E-2,5.413208E-2,3.0780947E-1,1.2936623E-1,-1.4927903E-2,2.7328277E-2,1.0634443E-1],"split_indices":[0,0,0,0,0,1,1,0,0,1,1,0,0,0,2,0,0,0,0,0,1,1,1,1,0,0,0,0,0,0,1,0,0,0,1,1,1,1,0,0,0,0,0,0,0,0,0,0,0,0,0,0,0,0,0,0,0,0,0,0,0,0,0,0,0,0,0,0,0,0,0,0,0],"split_type":[0,0,0,0,0,0,0,0,0,0,0,0,0,0,0,0,0,0,0,0,0,0,0,0,0,0,0,0,0,0,0,0,0,0,0,0,0,0,0,0,0,0,0,0,0,0,0,0,0,0,0,0,0,0,0,0,0,0,0,0,0,0,0,0,0,0,0,0,0,0,0,0,0],"sum_hessian":[2.251E3,1.254E3,9.97E2,5.04E2,7.5E2,7.6E2,2.37E2,3E0,5.01E2,4.64E2,2.86E2,7.59E2,1E0,2E0,2.35E2,1.93E2,3.08E2,4.25E2,3.9E1,2E0,2.84E2,2.58E2,5.01E2,2.24E2,1.1E1,1.75E2,1.8E1,2.89E2,1.9E1,3.01E2,1.24E2,1E0,3.8E1,2.4E1,2.6E2,1.93E2,6.5E1,4.94E2,7E0,6.5E1,1.59E2,1E0,1E1,1.62E2,1.3E1,1.3E1,5E0,2.79E2,1E1,7E0,1.2E1,9.6E1,2.05E2,5E1,7.4E1,5E0,3.3E1,1.3E1,1.1E1,5.6E1,2.04E2,5E1,1.43E2,6.4E1,1E0,2.9E1,4.65E2,5E0,2E0,5.6E1,9E0,1.16E2,4.3E1],"tree_param":{"num_deleted":"0","num_feature":"3","num_nodes":"73","size_leaf_vector":"1"}},{"base_weights":[3.7392967E-3,-9.344963E-2,9.337879E-2,1.9041024E-1,-9.60648E-2,4.0793058E-2,1.3949448E-1,-1.85229E-1,-6.8778895E-2,1.01775505E-1,2.7316218E-2,1.3127506E-1,6.3103944E-1,-1.6715375E-1,-1.5984136E-1,-2.6245975E-1,-6.463419E-2,2.7134767E-2,7.4437034E-1,3.5011336E-2,-7.121623E-2,1.24027014E-1,4.8515382E-1,3.5390982E-1,2.5121614E-1,-1.8914665E-1,-3.666234E-2,-5.83872E-2,-1.8805848E-1,2.692721E-2,-7.211709E-2,-7.458811E-2,1.1659857E-1,4.3521E-2,-7.2900586E-2,1.0695239E-1,-8.908005E-1,1.2093155E-1,1.6743393E-1,3.2626763E-1,3.3152077E-1,2.3536927E-1,-2.6990435E-1,-4.730313E-2,-1.0851332E-1,-2.2799334E-2,3.315343E-2,-9.1101214E-2,3.0664016E-2,-1.2982281E-2,1.18890695E-1,-1.8064752E-1,-1.9242194E-2,-6.2480113E-3,-1.5337992E-1,5.5183932E-2,-4.53443E-2,6.3470947E-3,5.4560684E-2,3.1633303E-2,-2.0982972E-1,-8.979324E-2,1.6037849E-1,-7.0950544E-1,1.3126889E-1,7.6501253E-3,3.9617755E-2,1.1088295E-1,5.1738743E-2],"categories":[],"categories_nodes":[],"categories_segments":[],"categories_sizes":[],"default_left":[0,0,0,0,0,0,0,0,0,0,0,0,0,0,0,0,0,0,0,0,0,0,0,0,0,0,0,0,0,0,0,0,0,0,0,0,0,0,0,0,0,0,0,0,0,0,0,0,0,0,0,0,0,0,0,0,0,0,0,0,0,0,0,0,0,0,0,0,0],"id":16,"left_children":[1,3,5,-1,7,9,11,13,15,17,19,21,23,25,-1,27,29,31,-1,33,35,37,39,41,-1,43,45,47,-1,49,51,53,55,57,59,61,63,65,-1,-1,67,-1,-1,-1,-1,-1,-1,-1,-1,-1,-1,-1,-1,-1,-1,-1,-1,-1,-1,-1,-1,-1,-1,-1,-1,-1,-1,-1,-1],"loss_changes":[1.9628075E1,2.1194515E0,2.836442E0,0E0,2.6099539E0,4.4841605E-1,2.4382544E0,1.494134E0,6.469102E-1,1.7515524E1,3.444501E-1,1.5172596E0,2.7549076E-1,6.8470764E-1,0E0,1.2275943E0,5.575938E-1,8.9144695E-1,0E0,3.8793784E-1,4.9140716E0,7.4409866E-1,7.5004363E-1,3.945044E0,0E0,1.0616541E0,2.1680784E-1,5.037513E-1,0E0,1.6248518E0,3.132262E0,1.0692681E0,9.6547407E-1,1.1997242E0,3.537653E0,5.024602E0,1.2784628E1,6.3484764E-1,0E0,0E0,2.8984547E-3,0E0,0E0,0E0,0E0,0E0,0E0,0E0,0E0,0E0,0E0,0E0,0E0,0E0,0E0,0E0,0E0,0E0,0E0,0E0,0E0,0E0,0E0,0E0,0E0,0E0,0E0,0E0,0E0],"parents":[2147483647,0,0,1,1,2,2,4,4,5,5,6,6,7,7,8,8,9,9,10,10,11,11,12,12,13,13,15,15,16,16,17,17,19,19,20,20,21,21,22,22,23,23,25,25,26,26,27,27,29,29,30,30,31,31,32,32,33,33,34,34,35,35,36,36,37,37,40,40],"right_children":[2,4,6,-1,8,10,12,14,16,18,20,22,24,26,-1,28,30,32,-1,34,36,38,40,42,-1,44,46,48,-1,50,52,54,56,58,60,62,64,66,-1,-1,68,-1,-1,-1,-1,-1,-1,-1,-1,-1,-1,-1,-1,-1,-1,-1,-1,-1,-1,-1,-1,-1,-1,-1,-1,-1,-1,-1,-1],"split_conditions":[1.09E1,8.9E0,1.106E1,1.9041024E-1,1.034E1,7.3E-1,7.9E-1,1.032E1,6.9E-1,1.104E1,1.105E1,2.64E1,1.113E1,1.023E1,-1.5984136E-1,1.057E1,1.045E1,1.096E1,7.4437034E-1,7.7E-1,7.6E-1,1.128E1,1.121E1,1.108E1,2.5121614E-1,1.015E1,7.5E-1,1.035E1,-1.8805848E-1,1.044E1,1.048E1,1.095E1,1.102E1,7.6E-1,1.104E1,7.5E-1,7.7E-1,7.3E-1,1.6743393E-1,3.2626763E-1,7.7E-1,2.3536927E-1,-2.6990435E-1,-4.730313E-2,-1.0851332E-1,-2.2799334E-2,3.315343E-2,-9.1101214E-2,3.0664016E-2,-1.2982281E-2,1.18890695E-1,-1.8064752E-1,-1.9242194E-2,-6.2480113E-3,-1.5337992E-1,5.5183932E-2,-4.53443E-2,6.3470947E-3,5.4560684E-2,3.1633303E-2,-2.0982972E-1,-8.979324E-2,1.6037849E-1,-7.0950544E-1,1.3126889E-1,7.6501253E-3,3.9617755E-2,1.1088295E-1,5.1738743E-2],"split_indices":[0,0,0,0,0,1,1,0,1,0,0,2,0,0,0,0,0,0,0,1,1,0,0,0,0,0,1,0,0,0,0,0,0,1,0,1,1,1,0,0,1,0,0,0,0,0,0,0,0,0,0,0,0,0,0,0,0,0,0,0,0,0,0,0,0,0,0,0,0],"split_type":[0,0,0,0,0,0,0,0,0,0,0,0,0,0,0,0,0,0,0,0,0,0,0,0,0,0,0,0,0,0,0,0,0,0,0,0,0,0,0,0,0,0,0,0,0,0,0,0,0,0,0,0,0,0,0,0,0,0,0,0,0,0,0,0,0,0,0,0,0],"sum_hessian":[2.251E3,1.08E3,1.171E3,3E0,1.077E3,5.48E2,6.23E2,2.51E2,8.26E2,9.8E1,4.5E2,6.14E2,9E0,2.4E2,1.1E1,1.6E1,8.1E2,9.6E1,2E0,4.18E2,3.2E1,6.03E2,1.1E1,5E0,4E0,2.05E2,3.5E1,1.1E1,5E0,6.1E1,7.49E2,4.5E1,5.1E1,3.88E2,3E1,2.7E1,5E0,6E2,3E0,1E0,1E1,4E0,1E0,1.75E2,3E1,2.8E1,7E0,4E0,7E0,5.2E1,9E0,1E1,7.39E2,4.1E1,4E0,4.1E1,1E1,3.35E2,5.3E1,2.4E1,6E0,1.4E1,1.3E1,2E0,3E0,6.3E1,5.37E2,7E0,3E0],"tree_param":{"num_deleted":"0","num_feature":"3","num_nodes":"69","size_leaf_vector":"1"}},{"base_weights":[2.8088007E-3,-5.1186454E-2,8.44306E-2,-8.870484E-2,-9.445686E-3,8.254064E-2,2.6667595E-1,1.475687E-1,-9.1846466E-2,-3.5101187E-4,-5.824729E-2,6.0091585E-2,1.4435318E-1,-3.3520305E-1,-8.6833805E-2,-2.1511316E-2,5.422261E-2,-1.8849671E-1,-1.5202064E-2,6.4620554E-2,-4.4279914E-2,3.829262E-1,1.2935083E-1,-1.2271434E-1,-6.860656E-2,-1.17081046E-1,-6.4791255E-2,-1.4568973E-1,-2.0908243E-3,6.155457E-1,1.7124448E-3,-2.6292067E-3,-3.5986444E-1,2.4393915E-1,-5.752074E-2,4.9289294E-2,1.6270186E-1,1.1459732E-1,-7.9803467E-1,2.2183116E-1,9.137441E-2,-3.0430546E-2,-1.9853605E-1,-2.4136627E-2,1.0363954E-2,2.4321352E-1,-7.209254E-2,6.2277247E-3,-4.6884056E-2,8.6616665E-2,3.836154E-1,-1.1683282E-2,2.0322491E-1,-1.109026E-1,8.189521E-2,-1.4559832E-1,-3.978081E-2,2.8241502E-2,9.4827384E-2,-7.298274E-2,1.6576431E-3,2.0467263E-2,-1.5967237E-2,-1.7315865E-2,9.544537E-2,-2.13192E-1,6.657622E-2,-4.2132226E-1,2.4411851E-1,1.2223261E-1,3.3398647E-2,9.396811E-3,6.891102E-2],"categories":[],"categories_nodes":[],"categories_segments":[],"categories_sizes":[],"default_left":[0,0,0,0,0,0,0,0,0,0,0,0,0,0,0,0,0,0,0,0,0,0,0,0,0,0,0,0,0,0,0,0,0,0,0,0,0,0,0,0,0,0,0,0,0,0,0,0,0,0,0,0,0,0,0,0,0,0,0,0,0,0,0,0,0,0,0,0,0,0,0,0,0],"id":17,"left_children":[1,3,5,7,9,11,-1,-1,13,15,17,19,21,23,25,27,29,31,33,35,37,-1,39,-1,-1,41,43,45,47,49,51,53,55,57,59,61,63,65,67,69,71,-1,-1,-1,-1,-1,-1,-1,-1,-1,-1,-1,-1,-1,-1,-1,-1,-1,-1,-1,-1,-1,-1,-1,-1,-1,-1,-1,-1,-1,-1,-1,-1],"loss_changes":[9.929313E0,2.1227212E0,1.2904778E0,1.3475366E0,2.8536528E-1,1.2346454E0,0E0,0E0,8.382168E-1,6.2821984E-1,5.6340265E-1,3.1436777E-1,3.8770084E0,1.6572952E-2,4.5778894E-1,9.450449E-1,4.4791718E0,7.953462E-1,8.58453E-1,9.423256E-1,3.4445777E0,0E0,8.0857897E-1,0E0,0E0,2.4299378E0,6.345333E-1,4.990975E0,1.2011364E0,2.448429E0,3.8724477E0,1.4160315E0,3.0631328E-1,8.91366E-2,7.859916E-1,1.0673444E0,2.930835E0,2.2833202E0,6.0294523E0,1.349349E0,1.3966701E0,0E0,0E0,0E0,0E0,0E0,0E0,0E0,0E0,0E0,0E0,0E0,0E0,0E0,0E0,0E0,0E0,0E0,0E0,0E0,0E0,0E0,0E0,0E0,0E0,0E0,0E0,0E0,0E0,0E0,0E0,0E0,0E0],"parents":[2147483647,0,0,1,1,2,2,3,3,4,4,5,5,8,8,9,9,10,10,11,11,12,12,13,13,14,14,15,15,16,16,17,17,18,18,19,19,20,20,22,22,25,25,26,26,27,27,28,28,29,29,30,30,31,31,32,32,33,33,34,34,35,35,36,36,37,37,38,38,39,39,40,40],"right_children":[2,4,6,8,10,12,-1,-1,14,16,18,20,22,24,26,28,30,32,34,36,38,-1,40,-1,-1,42,44,46,48,50,52,54,56,58,60,62,64,66,68,70,72,-1,-1,-1,-1,-1,-1,-1,-1,-1,-1,-1,-1,-1,-1,-1,-1,-1,-1,-1,-1,-1,-1,-1,-1,-1,-1,-1,-1,-1,-1,-1,-1],"split_conditions":[1.098E1,1.08E1,8E-1,8.9E0,7.5E-1,1.117E1,2.6667595E-1,1.475687E-1,9.02E0,7.4E-1,1.087E1,1.116E1,7.2E-1,8.96E0,7.1E-1,1.083E1,1.083E1,1.084E1,1.089E1,7.7E-1,7.7E-1,3.829262E-1,7.5E-1,-1.2271434E-1,-6.860656E-2,1.078E1,1.078E1,7.1E-1,1.096E1,1.082E1,1.097E1,7.6E-1,1.085E1,1.088E1,1.091E1,7.6E-1,1.107E1,7.4E-1,7.8E-1,1.119E1,7.7E-1,-3.0430546E-2,-1.9853605E-1,-2.4136627E-2,1.0363954E-2,2.4321352E-1,-7.209254E-2,6.2277247E-3,-4.6884056E-2,8.6616665E-2,3.836154E-1,-1.1683282E-2,2.0322491E-1,-1.109026E-1,8.189521E-2,-1.4559832E-1,-3.978081E-2,2.8241502E-2,9.4827384E-2,-7.298274E-2,1.6576431E-3,2.0467263E-2,-1.5967237E-2,-1.7315865E-2,9.544537E-2,-2.13192E-1,6.657622E-2,-4.2132226E-1,2.4411851E-1,1.2223261E-1,3.3398647E-2,9.396811E-3,6.891102E-2],"split_indices":[0,0,1,0,1,0,0,0,0,1,0,0,1,0,1,0,0,0,0,1,1,0,1,0,0,0,0,1,0,0,0,1,0,0,0,1,0,1,1,0,1,0,0,0,0,0,0,0,0,0,0,0,0,0,0,0,0,0,0,0,0,0,0,0,0,0,0,0,0,0,0,0,0],"split_type":[0,0,0,0,0,0,0,0,0,0,0,0,0,0,0,0,0,0,0,0,0,0,0,0,0,0,0,0,0,0,0,0,0,0,0,0,0,0,0,0,0,0,0,0,0,0,0,0,0,0,0,0,0,0,0,0,0,0,0,0,0,0,0,0,0,0,0,0,0,0,0,0,0],"sum_hessian":[2.251E3,1.355E3,8.96E2,7.13E2,6.42E2,8.95E2,1E0,3E0,7.1E2,5.42E2,1E2,6.58E2,2.37E2,1.3E1,6.97E2,3.91E2,1.51E2,2.4E1,7.6E1,6.31E2,2.7E1,2E0,2.35E2,6E0,7E0,2.92E2,4.05E2,5.2E1,3.39E2,1.2E1,1.39E2,1.2E1,1.2E1,1E1,6.6E1,5.47E2,8.4E1,2.3E1,4E0,6.7E1,1.68E2,2.85E2,7E0,3.5E2,5.5E1,4E0,4.8E1,2.96E2,4.3E1,9E0,3E0,1.32E2,7E0,5E0,7E0,7E0,5E0,4E0,6E0,1.6E1,5E1,4.62E2,8.5E1,3.5E1,4.9E1,2E0,2.1E1,3E0,1E0,2.4E1,4.3E1,1.18E2,5E1],"tree_param":{"num_deleted":"0","num_feature":"3","num_nodes":"73","size_leaf_vector":"1"}},{"base_weights":[2.4033098E-3,-4.7329213E-2,4.82723E-2,1.14365965E-1,-4.8875473E-2,4.513387E-2,3.4789276E-1,-1.181519E-1,-3.7113827E-2,4.387005E-2,2.2667427E-1,2.6699066E-1,2.1770686E-1,-8.898147E-2,-2.0052162E-1,2.3739347E-1,-4.3456618E-2,4.075792E-2,2.3905309E-1,2.583599E-1,2.459221E-2,-1.3176163E-1,2.6339528E-1,-4.3754494E-1,-9.552845E-2,7.873106E-2,1.0494881E-1,-4.581986E-1,-3.688376E-2,2.4810638E-2,6.590078E-2,3.8845444E-1,1.0866547E-1,8.673745E-2,3.3213045E-2,-8.480934E-2,-3.4919664E-2,3.360565E-2,1.03200965E-1,-3.8871005E-2,-1.3612908E-1,-5.9571597E-3,-5.255593E-2,4.1807177E-3,2.795638E-2,-1.4662844E-1,-9.132243E-3,-1.7868098E-2,-7.3438147E-3,5.5564297E-3,7.872665E-2,-4.930693E-2,2.6560623E-2,1.6355668E-1,7.3603444E-2,-3.899994E-2,9.876595E-2],"categories":[],"categories_nodes":[],"categories_segments":[],"categories_sizes":[],"default_left":[0,0,0,0,0,0,0,0,0,0,0,0,0,0,0,0,0,0,0,0,0,0,0,0,0,0,0,0,0,0,0,0,0,0,0,0,0,0,0,0,0,0,0,0,0,0,0,0,0,0,0,0,0,0,0,0,0],"id":18,"left_children":[1,3,5,-1,7,9,11,13,15,17,-1,-1,19,21,23,25,27,29,31,33,-1,35,37,39,41,43,-1,45,47,49,51,53,55,-1,-1,-1,-1,-1,-1,-1,-1,-1,-1,-1,-1,-1,-1,-1,-1,-1,-1,-1,-1,-1,-1,-1,-1],"loss_changes":[5.1395035E0,7.3495436E-1,1.0863745E0,0E0,8.739748E-1,1.0092857E0,6.530957E-1,3.5698795E-1,1.6173905E0,6.9488144E-1,0E0,0E0,3.9518654E-2,1.7984489E0,9.53635E-1,3.4708393E-1,2.4447148E0,4.5666254E-1,3.0842996E-1,4.3304563E-3,0E0,2.105676E-1,1.2009305E-1,1.1451244E-3,1.7132804E-1,8.068733E-3,0E0,1.6815066E-1,2.4888897E-1,1.0427055E0,2.3233716E0,4.568243E-2,6.218238E-1,0E0,0E0,0E0,0E0,0E0,0E0,0E0,0E0,0E0,0E0,0E0,0E0,0E0,0E0,0E0,0E0,0E0,0E0,0E0,0E0,0E0,0E0,0E0,0E0],"parents":[2147483647,0,0,1,1,2,2,4,4,5,5,6,6,7,7,8,8,9,9,12,12,13,13,14,14,15,15,16,16,17,17,18,18,19,19,21,21,22,22,23,23,24,24,25,25,27,27,28,28,29,29,30,30,31,31,32,32],"right_children":[2,4,6,-1,8,10,12,14,16,18,-1,-1,20,22,24,26,28,30,32,34,-1,36,38,40,42,44,-1,46,48,50,52,54,56,-1,-1,-1,-1,-1,-1,-1,-1,-1,-1,-1,-1,-1,-1,-1,-1,-1,-1,-1,-1,-1,-1,-1,-1],"split_conditions":[1.09E1,8.9E0,2.64E1,1.14365965E-1,1.008E1,8E-1,1.121E1,9.91E0,1.015E1,1.127E1,2.2667427E-1,2.6699066E-1,7.7E-1,9.84E0,9.96E0,1.012E1,1.019E1,1.11E1,7.6E-1,2.65E1,2.459221E-2,8.97E0,9.86E0,6.8E-1,1.003E1,1.009E1,1.0494881E-1,7.2E-1,1.068E1,7.8E-1,7.3E-1,7.5E-1,7.7E-1,8.673745E-2,3.3213045E-2,-8.480934E-2,-3.4919664E-2,3.360565E-2,1.03200965E-1,-3.8871005E-2,-1.3612908E-1,-5.9571597E-3,-5.255593E-2,4.1807177E-3,2.795638E-2,-1.4662844E-1,-9.132243E-3,-1.7868098E-2,-7.3438147E-3,5.5564297E-3,7.872665E-2,-4.930693E-2,2.6560623E-2,1.6355668E-1,7.3603444E-2,-3.899994E-2,9.876595E-2],"split_indices":[0,0,2,0,0,1,0,0,0,0,0,0,1,0,0,0,0,0,1,2,0,0,0,1,0,0,0,1,0,1,1,1,1,0,0,0,0,0,0,0,0,0,0,0,0,0,0,0,0,0,0,0,0,0,0,0,0],"split_type":[0,0,0,0,0,0,0,0,0,0,0,0,0,0,0,0,0,0,0,0,0,0,0,0,0,0,0,0,0,0,0,0,0,0,0,0,0,0,0,0,0,0,0,0,0,0,0,0,0,0,0,0,0,0,0,0,0],"sum_hessian":[2.251E3,1.08E3,1.171E3,3E0,1.077E3,1.16E3,1.1E1,1.55E2,9.22E2,1.159E3,1E0,1E0,1E1,1.16E2,3.9E1,2E1,9.02E2,1.142E3,1.7E1,7E0,3E0,1.04E2,1.2E1,1.1E1,2.8E1,9E0,1.1E1,1.3E1,8.89E2,7E2,4.42E2,7E0,1E1,5E0,2E0,8E0,9.6E1,5E0,7E0,1E0,1E1,1.5E1,1.3E1,2E0,7E0,1.2E1,1E0,3.13E2,5.76E2,6.83E2,1.7E1,3.9E1,4.03E2,2E0,5E0,5E0,5E0],"tree_param":{"num_deleted":"0","num_feature":"3","num_nodes":"57","size_leaf_vector":"1"}},{"base_weights":[2.0605181E-3,-2.8860519E-2,4.094212E-2,-6.2424906E-2,-1.8389696E-2,3.969484E-2,1.9267274E-1,8.8633925E-2,-6.706579E-2,2.0239572E-1,-2.4766108E-2,3.6756504E-2,2.7781996E-1,-7.198075E-2,1.1825609E-1,1.20469995E-1,9.8886736E-2,-3.0198127E-1,-1.7732356E-2,3.3986464E-2,1.8383493E-1,2.2694208E-1,1.6553567E-1,-6.5005384E-2,-1.9459876E-1,5.7250462E-2,-5.84693E-2,2.1880256E-2,1.9715376E-1,-1.1752229E-1,1.7628035E-2,-2.544916E-1,-1.5350355E-2,3.8411908E-2,-7.852503E-2,1.3084489E-1,1.2503624E-1,5.8753684E-2,6.3531876E-2,-4.081336E-2,-1.5684165E-2,-8.2817934E-2,-1.8619006E-2,-8.507691E-2,4.490106E-2,1.1390763E-1,3.6538604E-3,-4.04583E-2,2.2529412E-2,2.1672107E-2,-1.289693E-1,2.3182567E-2,-5.7536084E-3,9.067579E-3,3.3348158E-2,5.5314306E-2,-7.9848036E-2,1.8099977E-2,1.1559144E-1,2.7706148E-2,6.9419863E-3],"categories":[],"categories_nodes":[],"categories_segments":[],"categories_sizes":[],"default_left":[0,0,0,0,0,0,0,0,0,0,0,0,0,0,0,0,0,0,0,0,0,0,0,0,0,0,0,0,0,0,0,0,0,0,0,0,0,0,0,0,0,0,0,0,0,0,0,0,0,0,0,0,0,0,0,0,0,0,0,0,0],"id":19,"left_children":[1,3,5,7,9,11,-1,-1,13,15,17,19,21,23,25,27,-1,29,31,33,35,-1,37,39,41,-1,-1,43,45,-1,47,49,51,53,55,-1,57,-1,59,-1,-1,-1,-1,-1,-1,-1,-1,-1,-1,-1,-1,-1,-1,-1,-1,-1,-1,-1,-1,-1,-1],"loss_changes":[2.70867E0,4.399178E-1,7.2299886E-1,5.1474416E-1,1.353703E0,6.8737996E-1,0E0,0E0,2.7721286E-1,2.4171543E-1,1.8119171E0,3.9546132E-1,5.1971996E-1,2.3367822E-1,2.1901976E-1,1.3177037E-1,0E0,6.667304E-1,5.092979E-1,4.8549438E-1,2.1250933E-1,0E0,2.156657E-2,2.4057293E-1,1.4481378E-1,0E0,0E0,3.937688E-1,3.3302435E-1,0E0,6.270906E-2,5.468527E-1,3.213332E-1,5.5230427E-1,1.8742993E0,0E0,2.461957E-1,0E0,2.5196318E-3,0E0,0E0,0E0,0E0,0E0,0E0,0E0,0E0,0E0,0E0,0E0,0E0,0E0,0E0,0E0,0E0,0E0,0E0,0E0,0E0,0E0,0E0],"parents":[2147483647,0,0,1,1,2,2,3,3,4,4,5,5,8,8,9,9,10,10,11,11,12,12,13,13,14,14,15,15,17,17,18,18,19,19,20,20,22,22,23,23,24,24,27,27,28,28,30,30,31,31,32,32,33,33,34,34,36,36,38,38],"right_children":[2,4,6,8,10,12,-1,-1,14,16,18,20,22,24,26,28,-1,30,32,34,36,-1,38,40,42,-1,-1,44,46,-1,48,50,52,54,56,-1,58,-1,60,-1,-1,-1,-1,-1,-1,-1,-1,-1,-1,-1,-1,-1,-1,-1,-1,-1,-1,-1,-1,-1,-1],"split_conditions":[1.095E1,1.041E1,8E-1,8.9E0,1.045E1,2.64E1,1.9267274E-1,8.8633925E-2,7.6E-1,1.044E1,1.049E1,1.127E1,1.121E1,7.3E-1,7.8E-1,7.2E-1,9.8886736E-2,7.3E-1,6.9E-1,7.8E-1,7.5E-1,2.2694208E-1,7.7E-1,9.27E0,1.034E1,5.7250462E-2,-5.84693E-2,1.042E1,7.3E-1,-1.1752229E-1,1.046E1,1.057E1,1.054E1,7.7E-1,1.109E1,1.3084489E-1,7.8E-1,5.8753684E-2,1.127E1,-4.081336E-2,-1.5684165E-2,-8.2817934E-2,-1.8619006E-2,-8.507691E-2,4.490106E-2,1.1390763E-1,3.6538604E-3,-4.04583E-2,2.2529412E-2,2.1672107E-2,-1.289693E-1,2.3182567E-2,-5.7536084E-3,9.067579E-3,3.3348158E-2,5.5314306E-2,-7.9848036E-2,1.8099977E-2,1.1559144E-1,2.7706148E-2,6.9419863E-3],"split_indices":[0,0,1,0,0,2,0,0,1,0,0,0,0,1,1,1,0,1,1,1,1,0,1,0,0,0,0,0,1,0,0,0,0,1,0,0,1,0,0,0,0,0,0,0,0,0,0,0,0,0,0,0,0,0,0,0,0,0,0,0,0],"split_type":[0,0,0,0,0,0,0,0,0,0,0,0,0,0,0,0,0,0,0,0,0,0,0,0,0,0,0,0,0,0,0,0,0,0,0,0,0,0,0,0,0,0,0,0,0,0,0,0,0,0,0,0,0,0,0,0,0,0,0,0,0],"sum_hessian":[2.251E3,1.254E3,9.97E2,2.97E2,9.57E2,9.96E2,1E0,3E0,2.94E2,2.6E1,9.31E2,9.85E2,1.1E1,2.87E2,7E0,1.7E1,9E0,2.2E1,9.09E2,9.68E2,1.7E1,1E0,1E1,2.73E2,1.4E1,6E0,1E0,8E0,9E0,1.7E1,5E0,8E0,9.01E2,9.32E2,3.6E1,2E0,1.5E1,7E0,3E0,4E1,2.33E2,8E0,6E0,2E0,6E0,4E0,5E0,1E0,4E0,3E0,5E0,3.5E1,8.66E2,8.39E2,9.3E1,1.5E1,2.1E1,1.3E1,2E0,1E0,2E0],"tree_param":{"num_deleted":"0","num_feature":"3","num_nodes":"61","size_leaf_vector":"1"}},{"base_weights":[1.7413172E-3,-2.805085E-2,2.4223302E-2,6.869202E-2,-2.9086092E-2,-1.1482945E-1,2.5475236E-2,-6.660717E-2,-2.2805037E-2,1.2159724E-1,1.9734526E-2,-3.7999768E-2,-2.1571894E-1,8.845712E-2,-2.8261952E-2,2.4085326E-1,-2.4955156E-1,-5.321086E-3,5.4605026E-2,-6.416158E-2,7.450433E-2,-1.1331263E-1,-1.3136595E-1,8.349606E-3,8.040097E-2,-3.1250572E-1,-2.3110699E-2,1.3116482E-1,5.851417E-1,-1.2888151E0,3.7748146E-1,-6.879514E-3,1.6377182E-1,-5.5333156E-2,8.2158335E-2,-6.693249E-2,-1.6770892E-2,-5.448821E-2,-2.4913918E-2,5.3743318E-2,-1.0970574E-2,-1.0168037E-1,4.6603205E-3,-1.8058693E-3,-1.3430549E-2,1.4232193E-1,7.906084E-3,3.034889E-1,1.2468962E-1,6.8304064E-3,-6.834583E-1,4.1576844E-2,3.1438828E-1,1.6245529E-3,-2.7901163E-2,-9.200415E-2,4.0851454E-3,1.7268017E-1,1.8114844E-2],"categories":[],"categories_nodes":[],"categories_segments":[],"categories_sizes":[],"default_left":[0,0,0,0,0,0,0,0,0,0,0,0,0,0,0,0,0,0,0,0,0,0,0,0,0,0,0,0,0,0,0,0,0,0,0,0,0,0,0,0,0,0,0,0,0,0,0,0,0,0,0,0,0,0,0,0,0,0,0],"id":20,"left_children":[1,3,5,-1,7,-1,9,11,13,15,17,19,21,23,25,27,29,31,33,35,-1,-1,37,39,-1,41,43,45,47,49,51,53,-1,55,57,-1,-1,-1,-1,-1,-1,-1,-1,-1,-1,-1,-1,-1,-1,-1,-1,-1,-1,-1,-1,-1,-1,-1,-1],"loss_changes":[1.5090398E0,2.644943E-1,6.639784E-1,0E0,2.2614014E-1,0E0,7.044671E-1,5.8046937E-1,5.0582564E-1,3.2469494E0,1.0574696E0,8.9242464E-1,2.5099707E-1,5.58699E-1,1.1509693E0,2.0002954E0,1.2216249E1,6.0938424E-1,1.5373012E0,1.2929693E-1,0E0,0E0,2.3774236E-2,2.2136122E-1,0E0,1.2664104E-1,2.8771207E-1,1.5344471E0,5.1935387E-1,9.135442E0,1.7768297E0,7.459498E-1,0E0,1.7718848E0,4.3169527E0,0E0,0E0,0E0,0E0,0E0,0E0,0E0,0E0,0E0,0E0,0E0,0E0,0E0,0E0,0E0,0E0,0E0,0E0,0E0,0E0,0E0,0E0,0E0,0E0],"parents":[2147483647,0,0,1,1,2,2,4,4,6,6,7,7,8,8,9,9,10,10,11,11,12,12,13,13,14,14,15,15,16,16,17,17,18,18,19,19,22,22,23,23,25,25,26,26,27,27,28,28,29,29,30,30,31,31,33,33,34,34],"right_children":[2,4,6,-1,8,-1,10,12,14,16,18,20,22,24,26,28,30,32,34,36,-1,-1,38,40,-1,42,44,46,48,50,52,54,-1,56,58,-1,-1,-1,-1,-1,-1,-1,-1,-1,-1,-1,-1,-1,-1,-1,-1,-1,-1,-1,-1,-1,-1,-1,-1],"split_conditions":[1.088E1,8.9E0,7E-1,6.869202E-2,1.001E1,-1.1482945E-1,7.2E-1,9.91E0,1.015E1,1.108E1,1.108E1,9.85E0,9.95E0,1.012E1,1.019E1,1.104E1,1.111E1,8E-1,7.4E-1,8.94E0,7.450433E-2,-1.1331263E-1,9.97E0,1.003E1,8.040097E-2,7.2E-1,7.3E-1,1.089E1,1.107E1,7.1E-1,1.114E1,1.106E1,1.6377182E-1,1.11E1,1.109E1,-6.693249E-2,-1.6770892E-2,-5.448821E-2,-2.4913918E-2,5.3743318E-2,-1.0970574E-2,-1.0168037E-1,4.6603205E-3,-1.8058693E-3,-1.3430549E-2,1.4232193E-1,7.906084E-3,3.034889E-1,1.2468962E-1,6.8304064E-3,-6.834583E-1,4.1576844E-2,3.1438828E-1,1.6245529E-3,-2.7901163E-2,-9.200415E-2,4.0851454E-3,1.7268017E-1,1.8114844E-2],"split_indices":[0,0,1,0,0,0,1,0,0,0,0,0,0,0,0,0,0,1,1,0,0,0,0,0,0,1,1,0,0,1,0,0,0,0,0,0,0,0,0,0,0,0,0,0,0,0,0,0,0,0,0,0,0,0,0,0,0,0,0],"split_type":[0,0,0,0,0,0,0,0,0,0,0,0,0,0,0,0,0,0,0,0,0,0,0,0,0,0,0,0,0,0,0,0,0,0,0,0,0,0,0,0,0,0,0,0,0,0,0,0,0,0,0,0,0,0,0,0,0,0,0],"sum_hessian":[2.251E3,9.68E2,1.283E3,3E0,9.65E2,3E0,1.28E3,1.37E2,8.28E2,7.1E1,1.209E3,1.16E2,2.1E1,3.8E1,7.9E2,5.4E1,1.7E1,7.04E2,5.05E2,1.07E2,9E0,6E0,1.5E1,2.7E1,1.1E1,1.3E1,7.77E2,4.2E1,1.2E1,6E0,1.1E1,7.03E2,1E0,1.01E2,4.04E2,4E0,1.03E2,6E0,9E0,5E0,2.2E1,1.2E1,1E0,4.35E2,3.42E2,9E0,3.3E1,2E0,1E1,3E0,3E0,9E0,2E0,6.16E2,8.7E1,2.1E1,8E1,1.6E1,3.88E2],"tree_param":{"num_deleted":"0","num_feature":"3","num_nodes":"59","size_leaf_vector":"1"}},{"base_weights":[1.3351841E-3,-2.635056E-2,1.4178775E-2,-2.8588194E-2,1.06933355E-1,1.2477574E-2,2.296168E-1,-1.7853197E-2,-6.214055E-2,1.431158E-1,-4.9319267E-2,2.5609227E-2,-9.824238E-3,-2.9836655E-2,5.9881896E-1,-2.2567967E-2,1.8911998E-1,-3.9960228E-2,-2.7312863E-1,1.6744147E-1,-1.137228E-2,2.549057E-2,-4.768424E-2,6.267577E-4,7.7407934E-2,-2.21345E-2,1.1252037E-1,1.9300406E-1,-2.3845826E-1,2.6818314E-1,3.0155182E-1,-1.551525E-2,-1.09696165E-1,-3.0791092E-1,1.4283729E-1,-6.2059965E-2,1.2149369E-1,-4.1157863E-1,2.7054322E-1,2.2436716E-2,6.0390856E-2,8.328705E-3,-1.1703615E-1,3.8225484E-1,5.5294648E-2,-2.4639403E-2,1.9018365E-1,6.952148E-2,4.3059158E-1,-1.260441E-1,3.652204E-1,7.7453614E-3,3.8485718E-1,-7.1545397E-3,1.4530014E-1,7.713863E-5,-6.763501E-2,3.4395028E-2,-1.883505E-1,-3.5587214E-2,6.562267E-3,5.889463E-2,-1.02898225E-1,1.2368918E-3,-2.3274988E-1,-2.283821E-3,1.4237932E-2,4.8566956E-2,-6.462235E-2,-5.7878118E-2,1.7221713E-1,8.830446E-3,4.117686E-2,-4.4794963E-3,-5.9863497E-2,-5.4128263E-3,2.7220557E-2,1.5143372E-1,8.948136E-3,4.6477318E-2,1.5716249E-1,1.3803636E-1,3.5149384E-2],"categories":[],"categories_nodes":[],"categories_segments":[],"categories_sizes":[],"default_left":[0,0,0,0,0,0,0,0,0,0,0,0,0,0,0,0,0,0,0,0,0,0,0,0,0,0,0,0,0,0,0,0,0,0,0,0,0,0,0,0,0,0,0,0,0,0,0,0,0,0,0,0,0,0,0,0,0,0,0,0,0,0,0,0,0,0,0,0,0,0,0,0,0,0,0,0,0,0,0,0,0,0,0],"id":21,"left_children":[1,3,5,7,9,11,13,15,17,19,21,23,25,27,29,31,33,35,37,39,-1,-1,-1,41,43,45,47,49,-1,-1,51,53,55,57,-1,59,61,63,-1,-1,-1,65,67,69,71,73,-1,75,77,-1,79,-1,81,-1,-1,-1,-1,-1,-1,-1,-1,-1,-1,-1,-1,-1,-1,-1,-1,-1,-1,-1,-1,-1,-1,-1,-1,-1,-1,-1,-1,-1,-1],"loss_changes":[8.011496E-1,2.1600083E-1,5.611836E-1,2.5210023E-1,7.490161E-2,4.4774112E-1,1.1673561E0,5.253618E-1,7.84649E-1,5.0382465E-2,5.767074E-2,1.2448368E0,8.564459E-1,1.5172397E0,1.6908419E-1,3.196766E-1,1.8584039E0,5.605937E-1,2.9738915E0,1.3180792E-2,0E0,0E0,0E0,5.900265E-1,2.0888484E0,8.6362326E-1,6.812535E-1,8.926085E-1,0E0,0E0,8.194426E-2,2.031745E0,4.9643108E-1,7.479185E-1,0E0,6.530244E-1,7.276568E-1,2.274515E0,0E0,0E0,0E0,3.8150647E-1,1.132409E0,2.4274964E0,6.1697674E-1,8.7145936E-1,0E0,8.894251E-2,1.6333413E-1,0E0,1.1902541E-1,0E0,6.5329075E-3,0E0,0E0,0E0,0E0,0E0,0E0,0E0,0E0,0E0,0E0,0E0,0E0,0E0,0E0,0E0,0E0,0E0,0E0,0E0,0E0,0E0,0E0,0E0,0E0,0E0,0E0,0E0,0E0,0E0,0E0],"parents":[2147483647,0,0,1,1,2,2,3,3,4,4,5,5,6,6,7,7,8,8,9,9,10,10,11,11,12,12,13,13,14,14,15,15,16,16,17,17,18,18,19,19,23,23,24,24,25,25,26,26,27,27,30,30,31,31,32,32,33,33,35,35,36,36,37,37,41,41,42,42,43,43,44,44,45,45,47,47,48,48,50,50,52,52],"right_children":[2,4,6,8,10,12,14,16,18,20,22,24,26,28,30,32,34,36,38,40,-1,-1,-1,42,44,46,48,50,-1,-1,52,54,56,58,-1,60,62,64,-1,-1,-1,66,68,70,72,74,-1,76,78,-1,80,-1,82,-1,-1,-1,-1,-1,-1,-1,-1,-1,-1,-1,-1,-1,-1,-1,-1,-1,-1,-1,-1,-1,-1,-1,-1,-1,-1,-1,-1,-1,-1],"split_conditions":[1.08E1,7.6E-1,7.9E-1,7.3E-1,7.8E-1,7.5E-1,1.113E1,1.079E1,1.079E1,1.059E1,8.9E0,1.103E1,1.123E1,1.108E1,1.114E1,1.075E1,7.2E-1,1.078E1,7.5E-1,1.027E1,-1.137228E-2,2.549057E-2,-4.768424E-2,1.1E1,1.104E1,2.64E1,7.8E-1,1.103E1,-2.3845826E-1,2.6818314E-1,1.115E1,1.074E1,7.2E-1,7.1E-1,1.4283729E-1,7.4E-1,7.5E-1,7.4E-1,2.7054322E-1,2.2436716E-2,6.0390856E-2,7.4E-1,7.3E-1,7.3E-1,1.117E1,7.8E-1,1.9018365E-1,1.125E1,2.64E1,-1.260441E-1,1.107E1,7.7453614E-3,1.118E1,-7.1545397E-3,1.4530014E-1,7.713863E-5,-6.763501E-2,3.4395028E-2,-1.883505E-1,-3.5587214E-2,6.562267E-3,5.889463E-2,-1.02898225E-1,1.2368918E-3,-2.3274988E-1,-2.283821E-3,1.4237932E-2,4.8566956E-2,-6.462235E-2,-5.7878118E-2,1.7221713E-1,8.830446E-3,4.117686E-2,-4.4794963E-3,-5.9863497E-2,-5.4128263E-3,2.7220557E-2,1.5143372E-1,8.948136E-3,4.6477318E-2,1.5716249E-1,1.3803636E-1,3.5149384E-2],"split_indices":[0,1,1,1,1,1,0,0,0,0,0,0,0,0,0,0,1,0,1,0,0,0,0,0,0,2,1,0,0,0,0,0,1,1,0,1,1,1,0,0,0,1,1,1,0,1,0,0,2,0,0,0,0,0,0,0,0,0,0,0,0,0,0,0,0,0,0,0,0,0,0,0,0,0,0,0,0,0,0,0,0,0,0],"split_type":[0,0,0,0,0,0,0,0,0,0,0,0,0,0,0,0,0,0,0,0,0,0,0,0,0,0,0,0,0,0,0,0,0,0,0,0,0,0,0,0,0,0,0,0,0,0,0,0,0,0,0,0,0,0,0,0,0,0,0,0,0,0,0,0,0,0,0,0,0,0,0,0,0,0,0,0,0,0,0,0,0,0,0],"sum_hessian":[2.251E3,7.13E2,1.538E3,7.02E2,1.1E1,1.527E3,1.1E1,5.33E2,1.69E2,9E0,2E0,9.61E2,5.66E2,7E0,4E0,5.22E2,1.1E1,1.54E2,1.5E1,8E0,1E0,1E0,1E0,6.49E2,3.12E2,5.15E2,5.1E1,6E0,1E0,1E0,3E0,4.84E2,3.8E1,4E0,7E0,1.36E2,1.8E1,1.4E1,1E0,3E0,5E0,6.1E2,3.9E1,2E1,2.92E2,5.14E2,1E0,4.6E1,5E0,1E0,5E0,1E0,2E0,4.77E2,7E0,2E1,1.8E1,2E0,2E0,8.1E1,5.5E1,1.6E1,2E0,7E0,7E0,4.34E2,1.76E2,1E1,2.9E1,5E0,1.5E1,2.23E2,6.9E1,4.88E2,2.6E1,9E0,3.7E1,4E0,1E0,3E0,2E0,1E0,1E0],"tree_param":{"num_deleted":"0","num_feature":"3","num_nodes":"83","size_leaf_vector":"1"}},{"base_weights":[1.3040828E-3,1.1412565E-4,1.7875876E-1,-1.749409E-2,1.0407312E-2,3.5526735E-1,8.227678E-2,-2.1113511E-2,1.4615065E-1,9.790348E-3,1.322342E-1,5.2397348E-2,1.6165581E-1,4.2160608E-2,4.2862892E-2,-1.1292762E-1,-1.9472165E-2,6.790168E-2,1.0080529E-1,2.1240203E-2,-7.875689E-3,5.9960682E-2,-5.620321E-3,-4.91516E-2,-2.2853805E-2,-1.7717514E-2,-8.666678E-2,9.391029E-2,-4.0531542E-2,2.4387725E-2,-2.4779359E-1,-9.9239446E-2,-3.1557344E-3,2.2667313E-2,1.9177755E-2,-1.0134888E-2,7.6057436E-3,-4.336631E-3,-2.3237973E-2,4.1802816E-2,-5.8044314E-2,1.2133599E-2,4.486356E-2,4.4109398E-3,4.6094824E-2,-1.2825567E-1,9.42215E-2,-8.520254E-3,9.915101E-3,1.2178803E-2,-3.548813E-3],"categories":[],"categories_nodes":[],"categories_segments":[],"categories_sizes":[],"default_left":[0,0,0,0,0,0,0,0,0,0,0,0,0,0,0,0,0,0,0,0,0,0,0,0,0,0,0,0,0,0,0,0,0,0,0,0,0,0,0,0,0,0,0,0,0,0,0,0,0,0,0],"id":22,"left_children":[1,3,5,7,9,11,13,15,17,19,-1,-1,-1,-1,21,23,25,27,-1,29,31,33,35,-1,-1,37,39,41,-1,43,45,-1,47,-1,49,-1,-1,-1,-1,-1,-1,-1,-1,-1,-1,-1,-1,-1,-1,-1,-1],"loss_changes":[4.755197E-1,4.058076E-1,2.2621813E-1,4.9232477E-1,3.7087154E-1,7.1671486E-2,1.9234411E-2,1.1971629E-1,2.4460787E-1,2.8577757E-1,0E0,0E0,0E0,0E0,6.9686454E-3,1.3711378E-2,9.2315376E-2,8.660672E-2,0E0,7.3174167E-1,8.463999E-1,2.3675263E-3,3.4733089E-3,0E0,0E0,1.5030538E-1,5.097809E-1,3.2620333E-2,0E0,1.0593069E0,1.1440854E0,0E0,5.027391E-1,0E0,2.472581E-3,0E0,0E0,0E0,0E0,0E0,0E0,0E0,0E0,0E0,0E0,0E0,0E0,0E0,0E0,0E0,0E0],"parents":[2147483647,0,0,1,1,2,2,3,3,4,4,5,5,6,6,7,7,8,8,9,9,14,14,15,15,16,16,17,17,19,19,20,20,21,21,22,22,25,25,26,26,27,27,29,29,30,30,32,32,34,34],"right_children":[2,4,6,8,10,12,14,16,18,20,-1,-1,-1,-1,22,24,26,28,-1,30,32,34,36,-1,-1,38,40,42,-1,44,46,-1,48,-1,50,-1,-1,-1,-1,-1,-1,-1,-1,-1,-1,-1,-1,-1,-1,-1,-1],"split_conditions":[2.64E1,1.084E1,1.121E1,7.6E-1,8E-1,8.9E0,1.127E1,9.02E0,1.082E1,7.5E-1,1.322342E-1,5.2397348E-2,1.6165581E-1,4.2160608E-2,7.7E-1,8.94E0,7.5E-1,7.8E-1,1.0080529E-1,1.124E1,1.085E1,2.65E1,7.8E-1,-4.91516E-2,-2.2853805E-2,1.083E1,1.07E1,7.7E-1,-4.0531542E-2,1.117E1,1.127E1,-9.9239446E-2,1.113E1,2.2667313E-2,7.6E-1,-1.0134888E-2,7.6057436E-3,-4.336631E-3,-2.3237973E-2,4.1802816E-2,-5.8044314E-2,1.2133599E-2,4.486356E-2,4.4109398E-3,4.6094824E-2,-1.2825567E-1,9.42215E-2,-8.520254E-3,9.915101E-3,1.2178803E-2,-3.548813E-3],"split_indices":[2,0,0,1,1,0,0,0,0,1,0,0,0,0,1,0,1,1,0,0,0,2,1,0,0,0,0,1,0,0,0,0,0,0,1,0,0,0,0,0,0,0,0,0,0,0,0,0,0,0,0],"split_type":[0,0,0,0,0,0,0,0,0,0,0,0,0,0,0,0,0,0,0,0,0,0,0,0,0,0,0,0,0,0,0,0,0,0,0,0,0,0,0,0,0,0,0,0,0,0,0,0,0,0,0],"sum_hessian":[2.251E3,2.237E3,1.4E1,8.25E2,1.412E3,4E0,1E1,8.08E2,1.7E1,1.411E3,1E0,3E0,1E0,3E0,7E0,1.3E1,7.95E2,1.3E1,4E0,8.56E2,5.55E2,5E0,2E0,4E0,9E0,7.76E2,1.9E1,1.2E1,1E0,8.47E2,9E0,7E0,5.48E2,3E0,2E0,1E0,1E0,7.37E2,3.9E1,6E0,1.3E1,7E0,5E0,7.89E2,5.8E1,7E0,2E0,3.23E2,2.25E2,1E0,1E0],"tree_param":{"num_deleted":"0","num_feature":"3","num_nodes":"51","size_leaf_vector":"1"}},{"base_weights":[1.0630519E-3,1.0368688E-4,1.4412944E-1,2.9546404E-3,-4.432972E-2,2.9149628E-1,6.404183E-2,-2.5127234E-4,2.323519E-1,-2.6012757E-1,2.8037501E-2,4.0607646E-2,1.3740693E-1,3.26746E-2,3.3599854E-2,-6.1251567E-4,1.12399295E-1,1.5111618E-1,1.04986645E-1,-3.4465468E-1,-1.4349365E-1,1.8356234E-1,-3.0317972E-3,1.4536177E-2,2.505684E-2,-2.2622086E-2,5.18831E-3,8.010292E-3,4.266668E-2,-5.0640106E-3,-4.0505743E-1,4.8151016E-3,-2.5937992E-1,1.8994828E-1,8.140513E-2,5.302202E-2,-6.881924E-2,3.7261963E-2,-1.1823654E-2,-2.6083586E-3,-9.769159E-2,-1.21388346E-1,1.7052952E-3,-2.407219E-1,-7.549139E-2,-1.1014824E-1,9.042984E-2,-1.24565125E-1,1.1766244E-2,-6.285782E-2,4.268435E-2,5.3215567E-2,-5.0662626E-3,-9.621476E-2,2.3745788E-2,1.5021515E-2,4.8904424E-3,-9.039307E-3,6.4647677E-3],"categories":[],"categories_nodes":[],"categories_segments":[],"categories_sizes":[],"default_left":[0,0,0,0,0,0,0,0,0,0,0,0,0,0,0,0,0,0,0,0,0,0,0,0,0,0,0,0,0,0,0,0,0,0,0,0,0,0,0,0,0,0,0,0,0,0,0,0,0,0,0,0,0,0,0,0,0,0,0],"id":23,"left_children":[1,3,5,7,9,11,13,15,17,19,21,-1,-1,-1,23,25,-1,-1,27,29,31,33,35,37,-1,39,41,-1,-1,-1,43,45,47,-1,49,51,53,55,57,-1,-1,-1,-1,-1,-1,-1,-1,-1,-1,-1,-1,-1,-1,-1,-1,-1,-1,-1,-1],"loss_changes":[3.090785E-1,2.836354E-1,1.5836594E-1,1.547398E0,2.1155467E0,6.800789E-2,1.1366878E-2,2.8139412E-1,9.4944155E-1,2.8574085E-1,4.934254E-1,0E0,0E0,0E0,6.3996175E-3,2.6504022E-1,0E0,0E0,5.741784E-2,3.6933374E-1,2.762401E-1,7.292629E-1,3.2078573E-1,4.633907E-3,0E0,1.8245502E0,3.3627555E-1,0E0,0E0,0E0,7.7346087E-1,9.9335134E-1,4.3508297E-1,0E0,2.9547265E-1,4.1162193E-1,1.5163298E0,2.577519E-4,3.0931784E-3,0E0,0E0,0E0,0E0,0E0,0E0,0E0,0E0,0E0,0E0,0E0,0E0,0E0,0E0,0E0,0E0,0E0,0E0,0E0,0E0],"parents":[2147483647,0,0,1,1,2,2,3,3,4,4,5,5,6,6,7,7,8,8,9,9,10,10,14,14,15,15,18,18,19,19,20,20,21,21,22,22,23,23,25,25,26,26,30,30,31,31,32,32,34,34,35,35,36,36,37,37,38,38],"right_children":[2,4,6,8,10,12,14,16,18,20,22,-1,-1,-1,24,26,-1,-1,28,30,32,34,36,38,-1,40,42,-1,-1,-1,44,46,48,-1,50,52,54,56,58,-1,-1,-1,-1,-1,-1,-1,-1,-1,-1,-1,-1,-1,-1,-1,-1,-1,-1,-1,-1],"split_conditions":[2.64E1,1.119E1,1.121E1,1.118E1,1.121E1,8.9E0,1.127E1,8E-1,7.5E-1,1.12E1,1.122E1,4.0607646E-2,1.3740693E-1,3.26746E-2,1.129E1,1.06E1,1.12399295E-1,1.5111618E-1,7.6E-1,7.4E-1,7.5E-1,7.4E-1,7.6E-1,1.128E1,2.505684E-2,1.058E1,6.6E-1,8.010292E-3,4.266668E-2,-5.0640106E-3,7.5E-1,7.4E-1,7.7E-1,1.8994828E-1,7.5E-1,1.123E1,1.123E1,2.65E1,7.8E-1,-2.6083586E-3,-9.769159E-2,-1.21388346E-1,1.7052952E-3,-2.407219E-1,-7.549139E-2,-1.1014824E-1,9.042984E-2,-1.24565125E-1,1.1766244E-2,-6.285782E-2,4.268435E-2,5.3215567E-2,-5.0662626E-3,-9.621476E-2,2.3745788E-2,1.5021515E-2,4.8904424E-3,-9.039307E-3,6.4647677E-3],"split_indices":[2,0,0,0,0,0,0,1,1,0,0,0,0,0,0,0,0,0,1,1,1,1,1,0,0,0,1,0,0,0,1,1,1,0,1,0,0,2,1,0,0,0,0,0,0,0,0,0,0,0,0,0,0,0,0,0,0,0,0],"split_type":[0,0,0,0,0,0,0,0,0,0,0,0,0,0,0,0,0,0,0,0,0,0,0,0,0,0,0,0,0,0,0,0,0,0,0,0,0,0,0,0,0,0,0,0,0,0,0,0,0,0,0,0,0,0,0,0,0,0,0],"sum_hessian":[2.251E3,2.237E3,1.4E1,2.103E3,1.34E2,4E0,1E1,2.075E3,2.8E1,3.3E1,1.01E2,3E0,1E0,3E0,7E0,2.074E3,1E0,8E0,2E1,1.8E1,1.5E1,1.6E1,8.5E1,6E0,1E0,4.32E2,1.642E3,7E0,1.3E1,3E0,1.5E1,7E0,8E0,2E0,1.4E1,4.6E1,3.9E1,3E0,3E0,4.14E2,1.8E1,1E0,1.641E3,3E0,1.2E1,3E0,4E0,5E0,3E0,2E0,1.2E1,1.6E1,3E1,1.4E1,2.5E1,1E0,2E0,2E0,1E0],"tree_param":{"num_deleted":"0","num_feature":"3","num_nodes":"59","size_leaf_vector":"1"}},{"base_weights":[7.6051964E-4,-2.0340367E-3,3.9112203E-2,-2.5121467E-2,1.0711493E-3,-5.8224678E-2,8.55327E-2,-1.0843E-2,-3.0621758E-1,6.235041E-2,-1.3352553E-3,6.443542E-2,-2.6174566E-1,1.8143936E-1,-3.2103106E-3,-2.1899851E-2,3.980783E-2,-1.1419738E-1,-1.2586956E-1,1.4743141E-2,2.3592752E-1,-1.990254E-1,1.2474867E-3,-5.6076188E-2,1.4984211E-1,-1.5893751E-1,-9.7278886E-2,1.20225735E-1,5.4029083E-1,-6.2848055E-1,5.815364E-2,-5.1495684E-3,-1.7767093E-1,1.285661E-1,1.5846906E-2,1.148798E-1,-1.0464099E-1,1.3121252E-1,-7.040862E-2,1.8183732E-1,1.0176487E-1,-2.6572597E-1,3.424724E-2,-1.5595703E-1,2.1440608E-3,4.9625184E-2,-2.0528221E-1,2.1359025E-1,7.9059176E-2,2.6527405E-1,-4.4593483E-1,2.6509747E-1,-1.2545866E-1,7.17952E-2,2.5854492E-1,-3.4568655E-1,2.2001268E-1,4.180986E-2,3.0571747E-1,-7.947067E-3,5.244967E-2,-6.880224E-2,-2.3387183E-2,8.181668E-3,6.1244033E-2,-3.166118E-2,2.2763612E-2,-1.8617313E-3,6.0092855E-2,-6.1139338E-2,1.1581301E-2,1.6948758E-2,7.1233824E-2,-1.1288429E-1,-6.2178493E-2,2.9487992E-2,-4.2897463E-2,3.8032915E-2,-7.274623E-2,4.2768773E-2,2.548175E-4,